{"learner":{"attributes":{"scikit_learn":"{\"_estimator_type\": \"classifier\"}"},"feature_names":["speed_delta","points_per_second","actual_time_ms","time_window_ms","tick_count","total_volume","absorption_ratio","spread_ticks","vwap_dist_pct","pa_5m_open_norm","pa_5m_high_norm","pa_5m_low_norm","pa_5m_range","trend_dist","activity_5m_ticks","imbalance_current","imbalance_ago","imbalance_shift","sma_1h_dist_pct","daily_open_dist_pct","atr_1h","hour","day_of_week","is_buy","bid_norm_0","bid_norm_1","bid_norm_2","bid_norm_3","bid_norm_4","bid_norm_5","bid_norm_6","bid_norm_7","bid_norm_8","bid_norm_9","ask_norm_0","ask_norm_1","ask_norm_2","ask_norm_3","ask_norm_4","ask_norm_5","ask_norm_6","ask_norm_7","ask_norm_8","ask_norm_9"],"feature_types":["float","float","float","float","float","float","float","float","float","float","float","float","float","float","float","float","float","float","float","float","float","float","float","float","float","float","float","float","float","float","float","float","float","float","float","float","float","float","float","float","float","float","float","float"],"gradient_booster":{"model":{"cats":{"enc":[],"feature_segments":[],"sorted_idx":[]},"gbtree_model_param":{"num_parallel_tree":"1","num_trees":"150"},"iteration_indptr":[0,1,2,3,4,5,6,7,8,9,10,11,12,13,14,15,16,17,18,19,20,21,22,23,24,25,26,27,28,29,30,31,32,33,34,35,36,37,38,39,40,41,42,43,44,45,46,47,48,49,50,51,52,53,54,55,56,57,58,59,60,61,62,63,64,65,66,67,68,69,70,71,72,73,74,75,76,77,78,79,80,81,82,83,84,85,86,87,88,89,90,91,92,93,94,95,96,97,98,99,100,101,102,103,104,105,106,107,108,109,110,111,112,113,114,115,116,117,118,119,120,121,122,123,124,125,126,127,128,129,130,131,132,133,134,135,136,137,138,139,140,141,142,143,144,145,146,147,148,149,150],"tree_info":[0,0,0,0,0,0,0,0,0,0,0,0,0,0,0,0,0,0,0,0,0,0,0,0,0,0,0,0,0,0,0,0,0,0,0,0,0,0,0,0,0,0,0,0,0,0,0,0,0,0,0,0,0,0,0,0,0,0,0,0,0,0,0,0,0,0,0,0,0,0,0,0,0,0,0,0,0,0,0,0,0,0,0,0,0,0,0,0,0,0,0,0,0,0,0,0,0,0,0,0,0,0,0,0,0,0,0,0,0,0,0,0,0,0,0,0,0,0,0,0,0,0,0,0,0,0,0,0,0,0,0,0,0,0,0,0,0,0,0,0,0,0,0,0,0,0,0,0,0,0],"trees":[{"base_weights":[4.336062E-1,-7.291114E-1,5.403547E-1,-1.4753481E0,6.7857206E-1,6.1282206E-1,-9.649426E-1,-2.4330242E0,3.8989395E-2,6.4187828E-3,4.110759E-2,7.135092E-1,-2.688549E-1,5.2942264E-1,-1.14001624E-1,-1.7000292E-1,-4.00529E-3,1.4958334E-2,4.3154035E-2,-7.975636E-2,9.628709E-3,6.4187828E-3,3.3032108E-2],"categories":[],"categories_nodes":[],"categories_segments":[],"categories_sizes":[],"default_left":[0,0,0,0,0,1,0,0,0,0,0,0,0,0,0,0,0,0,0,0,0,0,0],"id":0,"left_children":[1,3,5,7,9,11,13,15,-1,-1,-1,17,19,21,-1,-1,-1,-1,-1,-1,-1,-1,-1],"loss_changes":[1.4322393E1,1.1360874E1,1.18659935E1,1.649747E1,2.1847963E-1,9.000042E0,1.1299758E1,1.1076921E1,0E0,0E0,0E0,5.2776184E0,6.975297E0,8.4406674E-2,0E0,0E0,0E0,0E0,0E0,0E0,0E0,0E0,0E0],"parents":[2147483647,0,0,1,1,2,2,3,3,4,4,5,5,6,6,7,7,11,11,12,12,13,13],"right_children":[2,4,6,8,10,12,14,16,-1,-1,-1,18,20,22,-1,-1,-1,-1,-1,-1,-1,-1,-1],"split_conditions":[3.6679536E-2,1.509E3,2.238E-1,2.079E-1,6.3E1,7.749078E-2,4.3887146E-2,5.9808612E-2,3.8989395E-2,6.4187828E-3,4.110759E-2,4.5E0,4.6898637E-2,-1.25E0,-1.14001624E-1,-1.7000292E-1,-4.00529E-3,1.4958334E-2,4.3154035E-2,-7.975636E-2,9.628709E-3,6.4187828E-3,3.3032108E-2],"split_indices":[37,14,19,8,4,43,37,30,0,0,0,12,38,0,0,0,0,0,0,0,0,0,0],"split_type":[0,0,0,0,0,0,0,0,0,0,0,0,0,0,0,0,0,0,0,0,0,0,0],"sum_hessian":[1.11218796E2,8.862055E0,1.02356735E2,5.760336E0,3.1017194E0,9.8221115E1,4.135626E0,3.9879248E0,1.7724111E0,1.0339065E0,2.067813E0,8.832515E1,9.895962E0,2.2155137E0,1.920112E0,2.5109158E0,1.4770092E0,2.4222952E1,6.41022E1,1.920112E0,7.9758496E0,1.0339065E0,1.1816074E0],"tree_param":{"num_deleted":"0","num_feature":"44","num_nodes":"23","size_leaf_vector":"1"}},{"base_weights":[3.428232E-1,-9.3432385E-1,4.4403204E-1,1.567268E-1,-2.4634E0,5.547549E-1,-3.997076E-1,-3.2120984E-2,6.690509E-1,-3.8377967E-2,-1.4576478E-1,7.2800124E-1,-2.7470777E-2,-1.016172E0,4.8849642E-1,4.0857725E-2,5.5910842E-3,3.8202576E-2,-4.3580208E-2,-6.632347E-2,1.9627599E-2,2.602621E-2,-8.593906E-2,-5.3148787E-3,4.390789E-2],"categories":[],"categories_nodes":[],"categories_segments":[],"categories_sizes":[],"default_left":[0,0,0,0,0,0,1,0,0,0,0,0,1,0,0,0,0,0,0,0,0,0,0,0,0],"id":1,"left_children":[1,3,5,7,9,11,13,-1,15,-1,-1,17,19,21,23,-1,-1,-1,-1,-1,-1,-1,-1,-1,-1],"loss_changes":[1.4671738E1,1.4434776E1,9.832575E0,2.8267987E0,4.9542618E-1,9.235424E0,7.3491755E0,0E0,2.4346697E-1,0E0,0E0,4.7283134E0,1.2477559E1,9.221827E0,1.4382818E0,0E0,0E0,0E0,0E0,0E0,0E0,0E0,0E0,0E0,0E0],"parents":[2147483647,0,0,1,1,2,2,3,3,4,4,5,5,6,6,8,8,11,11,12,12,13,13,14,14],"right_children":[2,4,6,8,10,12,14,-1,16,-1,-1,18,20,22,24,-1,-1,-1,-1,-1,-1,-1,-1,-1,-1],"split_conditions":[3.547067E-2,6.19E-1,8.1057265E-2,4.0358745E-2,-1.25E0,5.049505E-2,5.2083332E-2,-3.2120984E-2,1.809E3,-3.8377967E-2,-1.4576478E-1,1.01E1,2.04464E1,-5.99E-1,2.42236E1,4.0857725E-2,5.5910842E-3,3.8202576E-2,-4.3580208E-2,-6.632347E-2,1.9627599E-2,2.602621E-2,-8.593906E-2,-5.3148787E-3,4.390789E-2],"split_indices":[37,10,33,41,0,26,27,0,2,0,0,17,20,18,20,0,0,0,0,0,0,0,0,0,0],"split_type":[0,0,0,0,0,0,0,0,0,0,0,0,0,0,0,0,0,0,0,0,0,0,0,0,0],"sum_hessian":[1.0929728E2,7.420968E0,1.0187631E2,4.8545647E0,2.5664036E0,9.036087E1,1.1515435E1,1.7972301E0,3.0573344E0,1.1077718E0,1.4586318E0,6.944618E1,2.091469E1,6.7125E0,4.8029346E0,2.0468502E0,1.0104842E0,6.842641E1,1.0197743E0,4.5829563E0,1.6331734E1,2.1874413E0,4.525059E0,2.1889074E0,2.614027E0],"tree_param":{"num_deleted":"0","num_feature":"44","num_nodes":"25","size_leaf_vector":"1"}},{"base_weights":[3.941645E-1,7.987179E-1,1.2073809E-1,-5.2078104E-1,8.736777E-1,5.3185576E-1,-3.7388027E-1,-4.4729643E-2,5.540729E-3,4.832354E-2,9.462313E-1,-5.987338E-1,7.809665E-1,-1.5746997E-1,-1.3139735E-1,-5.8965594E-2,4.2177107E-2,4.952382E-2,-1.2181814E-2,-6.658752E-2,2.8986579E-2,-3.8816582E-2,4.462187E-2,-5.5850424E-2,7.881198E-3],"categories":[],"categories_nodes":[],"categories_segments":[],"categories_sizes":[],"default_left":[0,0,0,0,0,0,0,0,0,1,1,0,0,0,0,0,0,0,0,0,0,0,0,0,0],"id":2,"left_children":[1,3,5,7,9,11,13,-1,-1,15,17,19,21,23,-1,-1,-1,-1,-1,-1,-1,-1,-1,-1,-1],"loss_changes":[1.2111103E1,4.839611E0,1.3829233E1,8.096694E-1,2.4885101E0,1.0893351E1,1.4714222E1,0E0,0E0,5.3619175E0,2.2864342E0,7.034649E0,6.0339546E0,9.052812E0,0E0,0E0,0E0,0E0,0E0,0E0,0E0,0E0,0E0,0E0,0E0],"parents":[2147483647,0,0,1,1,2,2,3,3,4,4,5,5,6,6,9,9,10,10,11,11,12,12,13,13],"right_children":[2,4,6,8,10,12,14,-1,-1,16,18,20,22,24,-1,-1,-1,-1,-1,-1,-1,-1,-1,-1,-1],"split_conditions":[3.33E-1,4.0816326E-2,5.5258468E-2,1.11E0,3.47E2,1.4E1,7.87E0,-4.4729643E-2,5.540729E-3,5E-2,3.377E-1,5.487805E-2,2.8277636E-2,4.510309E-2,-1.3139735E-1,-5.8965594E-2,4.2177107E-2,4.952382E-2,-1.2181814E-2,-6.658752E-2,2.8986579E-2,-3.8816582E-2,4.462187E-2,-5.5850424E-2,7.881198E-3],"split_indices":[10,39,32,1,14,4,17,0,0,27,18,41,41,29,0,0,0,0,0,0,0,0,0,0,0],"split_type":[0,0,0,0,0,0,0,0,0,0,0,0,0,0,0,0,0,0,0,0,0,0,0,0,0],"sum_hessian":[1.0936002E2,4.332965E1,6.603037E1,2.0094953E0,4.1320152E1,3.6017776E1,3.0012598E1,1.0007796E0,1.0087156E0,3.4734132E0,3.784674E1,6.249757E0,2.9768019E1,2.835968E1,1.6529192E0,1.1755815E0,2.2978318E0,3.6651436E1,1.1953046E0,3.7729034E0,2.4768534E0,1.590039E0,2.817798E1,6.381486E0,2.1978193E1],"tree_param":{"num_deleted":"0","num_feature":"44","num_nodes":"25","size_leaf_vector":"1"}},{"base_weights":[3.5709938E-1,4.4356236E-1,-5.1274353E-1,-9.591603E-2,6.1571884E-1,3.669063E-1,-1.4119626E0,3.8833836E-1,-7.147364E-1,7.430475E-1,-3.131727E-1,-3.8566392E-2,7.744709E-1,3.229041E-2,-2.1206138E0,-3.425849E-2,2.9169062E-2,2.904164E-5,-8.3039604E-2,-3.6136813E-2,3.958041E-2,-8.891546E-2,1.4869708E-2,5.464286E-3,4.577422E-2,-1.2484152E-2,-1.3819495E-1],"categories":[],"categories_nodes":[],"categories_segments":[],"categories_sizes":[],"default_left":[0,0,0,0,0,0,0,0,0,0,0,0,0,0,0,0,0,0,0,0,0,0,0,0,0,0,0],"id":3,"left_children":[1,3,5,7,9,11,13,15,17,19,21,-1,23,-1,25,-1,-1,-1,-1,-1,-1,-1,-1,-1,-1,-1,-1],"loss_changes":[8.544876E0,9.4513E0,8.794055E0,7.8680534E0,9.315977E0,3.4191394E0,9.214958E0,3.5106564E0,7.76437E0,5.4006996E0,9.440163E0,0E0,3.6687708E-1,0E0,4.40732E0,0E0,0E0,0E0,0E0,0E0,0E0,0E0,0E0,0E0,0E0,0E0,0E0],"parents":[2147483647,0,0,1,1,2,2,3,3,4,4,5,5,6,6,7,7,8,8,9,9,10,10,12,12,14,14],"right_children":[2,4,6,8,10,12,14,16,18,20,22,-1,24,-1,26,-1,-1,-1,-1,-1,-1,-1,-1,-1,-1,-1,-1],"split_conditions":[3.061E-1,4.510309E-2,5.179283E-2,2.22E-1,7.692308E-2,3.1390134E-2,3.8101606E-2,9.925558E-3,4.235294E-2,1.2E1,7.73E2,-3.8566392E-2,-3.9E0,3.229041E-2,4.526749E-2,-3.425849E-2,2.9169062E-2,2.904164E-5,-8.3039604E-2,-3.6136813E-2,3.958041E-2,-8.891546E-2,1.4869708E-2,5.464286E-3,4.577422E-2,-1.2484152E-2,-1.3819495E-1],"split_indices":[18,29,42,9,33,25,40,34,29,6,14,0,16,0,30,0,0,0,0,0,0,0,0,0,0,0,0],"split_type":[0,0,0,0,0,0,0,0,0,0,0,0,0,0,0,0,0,0,0,0,0,0,0,0,0,0,0],"sum_hessian":[1.0959079E2,1.0012807E2,9.462729E0,2.4329805E1,7.5798256E1,5.0826564E0,4.380073E0,1.3857865E1,1.047194E1,6.683664E1,8.96162E0,1.1047672E0,3.9778893E0,1.144723E0,3.23535E0,1.7443136E0,1.2113551E1,6.5322556E0,3.939684E0,1.6980648E0,6.513857E1,2.0734787E0,6.888142E0,1.0062474E0,2.971642E0,1.1829613E0,2.0523884E0],"tree_param":{"num_deleted":"0","num_feature":"44","num_nodes":"27","size_leaf_vector":"1"}},{"base_weights":[3.1136808E-1,4.3447077E-1,-4.0973565E-1,4.856382E-1,-7.211283E-2,-1.14464276E-1,9.815545E-2,-8.2770836E-1,5.402279E-1,-5.3318407E-2,3.5509142E-1,-8.596699E-2,3.3531275E-2,3.1578805E-2,-1.22582065E-2,3.2647446E-2,-2.6364142E-2],"categories":[],"categories_nodes":[],"categories_segments":[],"categories_sizes":[],"default_left":[0,0,0,0,0,0,0,0,0,0,0,0,0,0,0,0,0],"id":4,"left_children":[1,3,5,7,-1,-1,9,11,13,-1,15,-1,-1,-1,-1,-1,-1],"loss_changes":[9.620901E0,9.472378E0,1.5523527E1,6.8762245E0,0E0,0E0,4.44066E0,6.4613934E0,6.374979E0,0E0,3.4645448E0,0E0,0E0,0E0,0E0,0E0,0E0],"parents":[2147483647,0,0,1,1,2,2,3,3,6,6,7,7,8,8,10,10],"right_children":[2,4,6,8,-1,-1,10,12,14,-1,16,-1,-1,-1,-1,-1,-1],"split_conditions":[7.692308E-2,7.36E-1,4.2372882E-2,2.5026068E-2,-7.211283E-2,-1.14464276E-1,2.2E1,1.2E1,7.749078E-2,-5.3318407E-2,2.970297E-2,-8.596699E-2,3.3531275E-2,3.1578805E-2,-1.22582065E-2,3.2647446E-2,-2.6364142E-2],"split_indices":[33,18,41,35,0,0,5,21,43,0,24,0,0,0,0,0,0],"split_type":[0,0,0,0,0,0,0,0,0,0,0,0,0,0,0,0,0],"sum_hessian":[1.0537495E2,9.034864E1,1.5026309E1,8.8672295E1,1.6763456E0,2.4504623E0,1.2575847E1,2.9734385E0,8.569885E1,1.7037102E0,1.0872136E1,1.7716566E0,1.2017819E0,7.694527E1,8.753591E0,8.322703E0,2.5494332E0],"tree_param":{"num_deleted":"0","num_feature":"44","num_nodes":"17","size_leaf_vector":"1"}},{"base_weights":[3.684707E-1,-1.7256674E-1,5.49512E-1,-1.2044863E-2,-9.892272E-2,-1.0592419E-2,7.120682E-1,5.116957E-1,-5.0667405E-1,2.7683216E-1,-1.0108278E-1,-2.0464133E-3,8.329539E-1,4.415691E-2,-2.3072807E-2,3.917013E-3,-9.3007445E-2,2.9681582E-2,-6.2310215E-2,-3.9233185E-2,3.3157103E-2,-8.551951E-3,4.3836396E-2],"categories":[],"categories_nodes":[],"categories_segments":[],"categories_sizes":[],"default_left":[0,0,0,0,0,0,1,0,0,0,0,0,0,0,0,0,0,0,0,0,0,0,0],"id":5,"left_children":[1,3,5,7,-1,9,11,13,15,17,-1,19,21,-1,-1,-1,-1,-1,-1,-1,-1,-1,-1],"loss_changes":[1.0578814E1,7.9760575E0,7.331215E0,7.085464E0,0E0,1.1587856E1,5.384844E0,5.213629E0,1.1273846E1,9.21857E0,0E0,5.7394123E0,2.493866E0,0E0,0E0,0E0,0E0,0E0,0E0,0E0,0E0,0E0,0E0],"parents":[2147483647,0,0,1,1,2,2,3,3,5,5,6,6,7,7,8,8,9,9,11,11,12,12],"right_children":[2,4,6,8,-1,10,12,14,16,18,-1,20,22,-1,-1,-1,-1,-1,-1,-1,-1,-1,-1],"split_conditions":[7.35E2,6.405229E-2,1.2145749E-2,2.04464E1,-9.892272E-2,8.20633E-2,1.92321E1,6.458333E-2,8.42E-1,1.0899182E-2,-1.0108278E-1,4.8882682E-2,3.7383176E-2,4.415691E-2,-2.3072807E-2,3.917013E-3,-9.3007445E-2,2.9681582E-2,-6.2310215E-2,-3.9233185E-2,3.3157103E-2,-8.551951E-3,4.3836396E-2],"split_indices":[14,35,24,20,0,33,20,41,10,24,0,39,40,0,0,0,0,0,0,0,0,0,0],"split_type":[0,0,0,0,0,0,0,0,0,0,0,0,0,0,0,0,0,0,0,0,0,0,0],"sum_hessian":[1.0603391E2,2.6596811E1,7.9437096E1,2.5350155E1,1.2466567E0,1.8078966E1,6.135813E1,1.2295985E1,1.3054169E1,1.6572712E1,1.5062549E0,9.025335E0,5.2332798E1,8.96618E0,3.329806E0,9.772366E0,3.2818034E0,1.422423E1,2.348482E0,4.064132E0,4.961203E0,2.0649152E0,5.0267883E1],"tree_param":{"num_deleted":"0","num_feature":"44","num_nodes":"23","size_leaf_vector":"1"}},{"base_weights":[2.9955137E-1,-4.1658473E-3,5.361241E-1,-4.2219388E-1,5.1920235E-1,7.6873934E-1,-1.013878E-3,-1.2427172E-1,-1.5451581E0,6.6511565E-1,-3.561818E-2,-4.375397E-1,8.680147E-1,6.801071E-1,-4.8760274E-1,-9.712268E-2,4.0854583E-3,3.0906776E-2,-1.1107148E-1,4.2296696E-2,-4.791071E-2,-6.999533E-2,3.495225E-2,4.6961304E-2,-3.55934E-2,5.0055575E-2,-1.3802963E-2,1.3473943E-2,-6.475805E-2],"categories":[],"categories_nodes":[],"categories_segments":[],"categories_sizes":[],"default_left":[0,0,0,0,0,0,0,0,0,0,0,0,0,0,0,0,0,0,0,0,0,0,0,0,0,0,0,0,0],"id":6,"left_children":[1,3,5,7,9,11,13,15,17,19,-1,21,23,25,27,-1,-1,-1,-1,-1,-1,-1,-1,-1,-1,-1,-1,-1,-1],"loss_changes":[7.4439344E0,1.0358059E1,7.27627E0,8.61195E0,4.252352E0,5.2458324E0,6.494528E0,8.354962E0,9.317353E0,6.4805403E0,0E0,5.085512E0,4.93021E0,2.7828543E0,7.336502E0,0E0,0E0,0E0,0E0,0E0,0E0,0E0,0E0,0E0,0E0,0E0,0E0,0E0,0E0],"parents":[2147483647,0,0,1,1,2,2,3,3,4,4,5,5,6,6,7,7,8,8,9,9,11,11,12,12,13,13,14,14],"right_children":[2,4,6,8,10,12,14,16,18,20,-1,22,24,26,28,-1,-1,-1,-1,-1,-1,-1,-1,-1,-1,-1,-1,-1,-1],"split_conditions":[-5.8E-1,5.3E1,2.5280898E-2,1.207E-1,7.749078E-2,1.333E1,7.7E-1,3.5603717E-2,-4.26E0,8.9701E-2,-3.561818E-2,5.48E2,7.0063695E-2,5.53E0,2.47E0,-9.712268E-2,4.0854583E-3,3.0906776E-2,-1.1107148E-1,4.2296696E-2,-4.791071E-2,-6.999533E-2,3.495225E-2,4.6961304E-2,-3.55934E-2,5.0055575E-2,-1.3802963E-2,1.3473943E-2,-6.475805E-2],"split_indices":[1,4,24,8,43,6,1,42,17,32,0,14,27,16,17,0,0,0,0,0,0,0,0,0,0,0,0,0,0],"split_type":[0,0,0,0,0,0,0,0,0,0,0,0,0,0,0,0,0,0,0,0,0,0,0,0,0,0,0,0,0],"sum_hessian":[1.0257099E2,4.5342148E1,5.7228844E1,2.531539E1,2.002676E1,3.963372E1,1.7595123E1,2.0885212E1,4.430178E0,1.8316591E1,1.7101681E0,2.7546823E0,3.6879036E1,7.1662264E0,1.0428898E1,1.2674288E0,1.9617783E1,1.0755658E0,3.354612E0,1.691173E1,1.4048616E0,1.3662096E0,1.3884726E0,3.567647E1,1.2025666E0,5.3298745E0,1.836352E0,5.7265716E0,4.702327E0],"tree_param":{"num_deleted":"0","num_feature":"44","num_nodes":"29","size_leaf_vector":"1"}},{"base_weights":[3.0204758E-1,-1.5491384E-2,6.682336E-1,1.8661804E-1,-6.569987E-1,-9.7023153E-1,8.405111E-1,3.5972255E-1,-9.626659E-1,-2.1581702E0,-1.0123539E-2,5.159696E-1,-1.1135711E-1,-3.671874E-2,9.000642E-1,-7.1941614E-2,2.3903945E-2,2.374488E-2,-8.999656E-2,-1.4143398E-1,-1.2433825E-2,-5.6367703E-2,3.223193E-2,5.8587138E-3,3.241925E-2,-5.6070616E-3,4.987179E-2],"categories":[],"categories_nodes":[],"categories_segments":[],"categories_sizes":[],"default_left":[0,0,1,0,0,0,0,0,0,0,0,0,0,0,0,0,0,0,0,0,0,0,0,0,0,0,0],"id":7,"left_children":[1,3,5,7,9,11,13,15,17,19,21,23,-1,-1,25,-1,-1,-1,-1,-1,-1,-1,-1,-1,-1,-1,-1],"loss_changes":[1.2230712E1,7.5471554E0,1.4599266E1,9.164341E0,1.3515102E1,1.0694967E1,4.8553925E0,9.042965E0,8.165749E0,4.665432E0,8.588314E0,9.054625E-2,0E0,0E0,4.403305E0,0E0,0E0,0E0,0E0,0E0,0E0,0E0,0E0,0E0,0E0,0E0,0E0],"parents":[2147483647,0,0,1,1,2,2,3,3,4,4,5,5,6,6,7,7,8,8,9,9,10,10,11,11,14,14],"right_children":[2,4,6,8,10,12,14,16,18,20,22,24,-1,-1,26,-1,-1,-1,-1,-1,-1,-1,-1,-1,-1,-1,-1],"split_conditions":[1.25E0,5.0675675E-2,4.109589E-2,5.13834E-2,4.6632126E-2,4.494382E-2,-7.76E-1,2.7488152E-2,5.120167E-2,6.22665E-2,5.5214725E-2,4.489796E-2,-1.1135711E-1,-3.671874E-2,4.81E2,-7.1941614E-2,2.3903945E-2,2.374488E-2,-8.999656E-2,-1.4143398E-1,-1.2433825E-2,-5.6367703E-2,3.223193E-2,5.8587138E-3,3.241925E-2,-5.6070616E-3,4.987179E-2],"split_indices":[0,26,39,35,29,41,8,28,43,26,43,30,0,0,14,0,0,0,0,0,0,0,0,0,0,0,0],"split_type":[0,0,0,0,0,0,0,0,0,0,0,0,0,0,0,0,0,0,0,0,0,0,0,0,0,0,0],"sum_hessian":[1.0409578E2,5.626402E1,4.7831764E1,4.3323784E1,1.2940235E1,4.110127E0,4.3721638E1,3.8249645E1,5.074137E0,3.1933298E0,9.746905E0,2.1533952E0,1.956732E0,1.1801832E0,4.2541454E1,1.6728021E0,3.6576843E1,2.026863E0,3.0472739E0,2.0071518E0,1.1861781E0,3.3348403E0,6.412065E0,1.0066296E0,1.1467656E0,3.719941E0,3.8821514E1],"tree_param":{"num_deleted":"0","num_feature":"44","num_nodes":"27","size_leaf_vector":"1"}},{"base_weights":[2.7219954E-1,-4.1672784E-1,3.8746276E-1,-9.62782E-1,6.453732E-1,-6.639049E-2,4.3703935E-1,2.377979E-2,-1.3446432E0,4.7039635E-2,-1.6825033E-2,1.6942962E-1,7.490616E-1,-1.2578374E-1,-1.805053E-2,-2.6627267E-2,1.821488E-2,5.2450664E-2,1.0318293E-2],"categories":[],"categories_nodes":[],"categories_segments":[],"categories_sizes":[],"default_left":[0,0,1,0,0,0,0,0,0,0,0,0,0,0,0,0,0,0,0],"id":8,"left_children":[1,3,5,7,9,-1,11,-1,13,-1,-1,15,17,-1,-1,-1,-1,-1,-1],"loss_changes":[8.421878E0,9.54789E0,8.202495E0,6.4433203E0,2.006183E0,0E0,7.2100716E0,0E0,9.010694E0,0E0,0E0,6.841097E0,6.3396397E0,0E0,0E0,0E0,0E0,0E0,0E0],"parents":[2147483647,0,0,1,1,2,2,3,3,4,4,6,6,8,8,11,11,12,12],"right_children":[2,4,6,8,10,-1,12,-1,14,-1,-1,16,18,-1,-1,-1,-1,-1,-1],"split_conditions":[5.03E2,4E0,1.5406837E-2,4.3095004E-2,4.32E1,-6.639049E-2,6.4E-1,2.377979E-2,5.0410315E-2,4.7039635E-2,-1.6825033E-2,1.2658228E-2,1.8E0,-1.2578374E-1,-1.805053E-2,-2.6627267E-2,1.821488E-2,5.2450664E-2,1.0318293E-2],"split_indices":[14,22,39,40,6,0,1,0,40,0,0,24,17,0,0,0,0,0,0],"split_type":[0,0,0,0,0,0,0,0,0,0,0,0,0,0,0,0,0,0,0],"sum_hessian":[1.0302493E2,1.4391515E1,8.8633415E1,9.56659E0,4.8249245E0,1.7655389E0,8.686788E1,1.9554439E0,7.611146E0,3.741152E0,1.0837725E0,4.7592545E1,3.9275333E1,2.7635531E0,4.847593E0,9.964493E0,3.762805E1,2.4693884E1,1.458145E1],"tree_param":{"num_deleted":"0","num_feature":"44","num_nodes":"19","size_leaf_vector":"1"}},{"base_weights":[2.8835854E-1,3.7104583E-1,-1.0639702E0,-9.322603E-2,5.581166E-1,-1.8761673E0,2.2743507E-1,5.586243E-1,-6.0229164E-1,8.6300683E-1,2.830351E-1,-1.2331295E-1,-1.3427935E-2,-1.6436828E-2,3.2840844E-2,4.3821733E-2,-2.5935432E-2,-6.694068E-3,-7.472229E-2,4.856223E-2,-1.8178623E-2,3.0441118E-2,-2.1078642E-2],"categories":[],"categories_nodes":[],"categories_segments":[],"categories_sizes":[],"default_left":[0,0,0,0,0,0,0,0,0,0,0,0,0,0,0,0,0,0,0,0,0,0,0],"id":9,"left_children":[1,3,5,7,9,11,13,15,17,19,21,-1,-1,-1,-1,-1,-1,-1,-1,-1,-1,-1,-1],"loss_changes":[1.1777656E1,8.448149E0,6.8502007E0,9.834161E0,5.5469456E0,3.0067587E0,9.935842E-1,4.9294705E0,6.7170043E0,4.636368E0,8.930879E0,0E0,0E0,0E0,0E0,0E0,0E0,0E0,0E0,0E0,0E0,0E0,0E0],"parents":[2147483647,0,0,1,1,2,2,3,3,4,4,5,5,6,6,7,7,8,8,9,9,10,10],"right_children":[2,4,6,8,10,12,14,16,18,20,22,-1,-1,-1,-1,-1,-1,-1,-1,-1,-1,-1,-1],"split_conditions":[3.33029E1,4.6632126E-2,5.1522247E-2,-6.61E0,5.345912E-2,5.956113E-2,5.7142857E-2,4.39E-1,5.4446463E-2,1.284E1,5.8139537E-2,-1.2331295E-1,-1.3427935E-2,-1.6436828E-2,3.2840844E-2,4.3821733E-2,-2.5935432E-2,-6.694068E-3,-7.472229E-2,4.856223E-2,-1.8178623E-2,3.0441118E-2,-2.1078642E-2],"split_indices":[20,29,37,15,29,30,32,9,40,16,41,0,0,0,0,0,0,0,0,0,0,0,0],"split_type":[0,0,0,0,0,0,0,0,0,0,0,0,0,0,0,0,0,0,0,0,0,0,0],"sum_hessian":[1.0079606E2,9.567189E1,5.124172E0,2.7621805E1,6.805009E1,2.8677573E0,2.2564147E0,1.2069566E1,1.5552239E1,3.126255E1,3.6787537E1,1.7070485E0,1.1607088E0,1.0851859E0,1.1712288E0,9.464146E0,2.60542E0,1.0952095E1,4.6001444E0,2.8918818E1,2.3437324E0,2.5249123E1,1.1538413E1],"tree_param":{"num_deleted":"0","num_feature":"44","num_nodes":"23","size_leaf_vector":"1"}},{"base_weights":[2.1596973E-1,3.0792326E-1,-9.125882E-1,-1.554159E-1,5.1064116E-1,-1.824691E0,6.2181354E-1,-8.217238E-1,2.7503565E-1,6.5868455E-1,-3.3059064E-1,-8.245069E-3,-1.3970989E-1,3.781553E-2,6.7915595E-3,-6.0013008E-5,-9.370168E-2,4.2430658E-2,-1.5632447E-2,3.740417E-2,-2.0084132E-3,-7.3515505E-2,2.7594466E-2],"categories":[],"categories_nodes":[],"categories_segments":[],"categories_sizes":[],"default_left":[0,0,0,0,0,0,0,0,0,0,0,0,0,0,0,0,0,0,0,0,0,0,0],"id":10,"left_children":[1,3,5,7,9,11,13,15,17,19,21,-1,-1,-1,-1,-1,-1,-1,-1,-1,-1,-1,-1],"loss_changes":[1.0811937E1,8.963077E0,1.218771E1,8.702153E0,8.440811E0,7.918953E0,1.384759E-1,1.0229186E1,6.569876E0,3.5588055E0,1.141922E1,0E0,0E0,0E0,0E0,0E0,0E0,0E0,0E0,0E0,0E0,0E0,0E0],"parents":[2147483647,0,0,1,1,2,2,3,3,4,4,5,5,6,6,7,7,8,8,9,9,10,10],"right_children":[2,4,6,8,10,12,14,16,18,20,22,-1,-1,-1,-1,-1,-1,-1,-1,-1,-1,-1,-1],"split_conditions":[3.09843E1,4.7013976E-2,8.9E-1,4.75E0,5.38E0,4.519774E-2,1.5075377E-2,1.16E-1,-6.48E0,7.635468E-2,1.4E1,-8.245069E-3,-1.3970989E-1,3.781553E-2,6.7915595E-3,-6.0013008E-5,-9.370168E-2,4.2430658E-2,-1.5632447E-2,3.740417E-2,-2.0084132E-3,-7.3515505E-2,2.7594466E-2],"split_indices":[20,29,17,12,17,39,34,9,15,33,21,0,0,0,0,0,0,0,0,0,0,0,0],"split_type":[0,0,0,0,0,0,0,0,0,0,0,0,0,0,0,0,0,0,0,0,0,0,0],"sum_hessian":[1.00478615E2,9.358091E1,6.8977056E0,2.855285E1,6.502806E1,4.2074566E0,2.690249E0,1.0849549E1,1.7703302E1,5.5481243E1,9.546816E0,1.9828745E0,2.224582E0,1.6714259E0,1.018823E0,6.6586795E0,4.1908703E0,8.734488E0,8.968815E0,4.912644E1,6.3548083E0,3.8755045E0,5.6713114E0],"tree_param":{"num_deleted":"0","num_feature":"44","num_nodes":"23","size_leaf_vector":"1"}},{"base_weights":[2.7512413E-1,5.5535764E-1,5.867929E-3,7.5754225E-1,-4.2923602E-1,-4.049841E-1,3.3366254E-1,6.609608E-2,8.579697E-1,4.7126514E-1,-1.4991205E0,-2.0603275E0,-1.3121617E-1,6.0941035E-1,-2.587106E-1,4.161591E-2,-3.1103482E-2,4.524095E-2,-1.9489745E-2,4.6923574E-2,-4.161794E-2,-6.8771857E-4,-1.175695E-1,-1.2444711E-1,-3.3618536E-2,2.8580252E-2,-4.3866154E-2,4.006253E-2,-3.1005839E-2,-9.539958E-2,1.7240936E-2],"categories":[],"categories_nodes":[],"categories_segments":[],"categories_sizes":[],"default_left":[0,0,0,0,0,0,0,0,0,0,0,0,0,0,0,0,0,0,0,0,0,0,0,0,0,0,0,0,0,0,0],"id":11,"left_children":[1,3,5,7,9,11,13,15,17,19,21,23,25,27,29,-1,-1,-1,-1,-1,-1,-1,-1,-1,-1,-1,-1,-1,-1,-1,-1],"loss_changes":[7.7384057E0,1.0331326E1,7.318112E0,2.8641548E0,9.571614E0,1.06607485E1,5.093112E0,3.9018977E0,2.4948444E0,4.287596E0,5.594061E0,3.2243633E-1,1.191503E1,5.4302564E0,1.0909761E1,0E0,0E0,0E0,0E0,0E0,0E0,0E0,0E0,0E0,0E0,0E0,0E0,0E0,0E0,0E0,0E0],"parents":[2147483647,0,0,1,1,2,2,3,3,4,4,5,5,6,6,7,7,8,8,9,9,10,10,11,11,12,12,13,13,14,14],"right_children":[2,4,6,8,10,12,14,16,18,20,22,24,26,28,30,-1,-1,-1,-1,-1,-1,-1,-1,-1,-1,-1,-1,-1,-1,-1,-1],"split_conditions":[-5.15E-1,7.692308E-2,5.2083332E-2,8E0,5.2E-1,4.88E2,4.9586777E-2,1.6E-1,6.538462E-2,2.6890757E-2,4.890388E-2,5.6921087E-2,-1.6E0,6.0606062E-2,1.2658228E-2,4.161591E-2,-3.1103482E-2,4.524095E-2,-1.9489745E-2,4.6923574E-2,-4.161794E-2,-6.8771857E-4,-1.175695E-1,-1.2444711E-1,-3.3618536E-2,2.8580252E-2,-4.3866154E-2,4.006253E-2,-3.1005839E-2,-9.539958E-2,1.7240936E-2],"split_indices":[11,33,31,21,13,14,26,13,36,24,31,42,15,41,24,0,0,0,0,0,0,0,0,0,0,0,0,0,0,0,0],"split_type":[0,0,0,0,0,0,0,0,0,0,0,0,0,0,0,0,0,0,0,0,0,0,0,0,0,0,0,0,0,0,0],"sum_hessian":[1.0160028E2,4.9264626E1,5.233566E1,4.106301E1,8.201614E0,2.3120876E1,2.921478E1,5.418009E0,3.5645004E1,4.757139E0,3.4444747E0,2.355071E0,2.0765806E1,1.9915445E1,9.299336E0,2.4644976E0,2.9535112E0,3.461999E1,1.0250126E0,3.7082453E0,1.0488939E0,1.6262777E0,1.8181973E0,1.1933204E0,1.1617508E0,1.081352E1,9.952286E0,1.7528793E1,2.3866518E0,1.9122603E0,7.3870754E0],"tree_param":{"num_deleted":"0","num_feature":"44","num_nodes":"31","size_leaf_vector":"1"}},{"base_weights":[2.6129046E-1,-1.0454986E0,3.3030006E-1,1.5046924E-2,-1.5978044E0,-9.607254E-2,4.8276195E-1,-1.0627418E-1,-2.3012308E-2,1.9848569E-1,-1.1161001E0,8.2747626E-1,2.908398E-1,3.913438E-2,-1.6506406E-2,-1.2271366E-1,8.499126E-3,8.3550075E-3,4.9617827E-2,-3.9620038E-2,2.1394221E-2],"categories":[],"categories_nodes":[],"categories_segments":[],"categories_sizes":[],"default_left":[0,0,0,0,0,0,0,0,0,0,0,0,0,0,0,0,0,0,0,0,0],"id":12,"left_children":[1,3,5,-1,7,9,11,-1,-1,13,15,17,19,-1,-1,-1,-1,-1,-1,-1,-1],"loss_changes":[9.381683E0,4.3970237E0,6.282771E0,0E0,1.3585062E0,8.064408E0,4.4455395E0,0E0,0E0,6.775426E0,1.0743004E1,2.5334663E0,7.32261E0,0E0,0E0,0E0,0E0,0E0,0E0,0E0,0E0],"parents":[2147483647,0,0,1,1,2,2,4,4,5,5,6,6,9,9,10,10,11,11,12,12],"right_children":[2,4,6,-1,8,10,12,-1,-1,14,16,18,20,-1,-1,-1,-1,-1,-1,-1,-1],"split_conditions":[2.586207E-2,2.8794734E-2,7.18E2,1.5046924E-2,4.2801555E-2,4.8933502E-2,2.92E-1,-1.0627418E-1,-2.3012308E-2,1.6891891E-2,5.4857142E-2,4.731861E-2,3.82E-1,3.913438E-2,-1.6506406E-2,-1.2271366E-1,8.499126E-3,8.3550075E-3,4.9617827E-2,-3.9620038E-2,2.1394221E-2],"split_indices":[35,32,14,0,29,35,10,0,0,24,31,42,10,0,0,0,0,0,0,0,0],"split_type":[0,0,0,0,0,0,0,0,0,0,0,0,0,0,0,0,0,0,0,0,0],"sum_hessian":[9.920246E1,4.266199E0,9.493626E1,1.373337E0,2.892862E0,2.5103119E1,6.983314E1,1.3829105E0,1.5099516E0,2.0103226E1,4.999893E0,2.379073E1,4.604241E1,9.321193E0,1.0782034E1,2.0051725E0,2.994721E0,5.1554914E0,1.8635239E1,4.63376E0,4.1408653E1],"tree_param":{"num_deleted":"0","num_feature":"44","num_nodes":"21","size_leaf_vector":"1"}},{"base_weights":[2.7580252E-1,-9.5211166E-1,3.4639704E-1,-1.7303799E0,3.609437E-2,4.0318468E-1,-1.011298E0,-1.039506E-1,-1.71169E-2,5.202637E-1,-3.7418914E-1,-9.72064E-2,1.728228E-2,3.0962888E-2,-1.1498268E-2,-5.1046368E-2,1.4327603E-2],"categories":[],"categories_nodes":[],"categories_segments":[],"categories_sizes":[],"default_left":[0,0,0,0,0,0,0,0,0,0,0,0,0,0,0,0,0],"id":13,"left_children":[1,3,5,7,-1,9,11,-1,-1,13,15,-1,-1,-1,-1,-1,-1],"loss_changes":[8.592501E0,8.348078E0,7.4139004E0,1.2307014E0,0E0,8.1982355E0,5.6506834E0,0E0,0E0,5.8495693E0,5.4598656E0,0E0,0E0,0E0,0E0,0E0,0E0],"parents":[2147483647,0,0,1,1,2,2,3,3,5,5,6,6,9,9,10,10],"right_children":[2,4,6,8,-1,10,12,-1,-1,14,16,-1,-1,-1,-1,-1,-1],"split_conditions":[2.5026068E-2,1.2E1,7.36E-1,2E0,3.609437E-2,7.749078E-2,-3.4E-1,-1.039506E-1,-1.71169E-2,7.995619E-2,5.1369864E-2,-9.72064E-2,1.728228E-2,3.0962888E-2,-1.1498268E-2,-5.1046368E-2,1.4327603E-2],"split_indices":[35,21,18,7,0,43,17,0,0,33,38,0,0,0,0,0,0],"split_type":[0,0,0,0,0,0,0,0,0,0,0,0,0,0,0,0,0],"sum_hessian":[9.431966E1,4.4489E0,8.987076E1,3.0139754E0,1.4349246E0,8.693751E1,2.9332547E0,2.0110593E0,1.002916E0,7.584531E1,1.1092195E1,1.4818394E0,1.4514153E0,6.715823E1,8.687074E0,5.330014E0,5.7621803E0],"tree_param":{"num_deleted":"0","num_feature":"44","num_nodes":"17","size_leaf_vector":"1"}},{"base_weights":[1.9770788E-1,-2.5084745E-2,5.896774E-1,-6.326045E-1,1.8637237E-1,-9.753928E-1,7.490537E-1,5.954628E-1,-1.7385423E0,-6.180065E-1,4.322182E-1,2.9531581E-2,-8.848432E-2,9.371682E-1,1.5180728E-1,5.0040495E-2,-3.2692313E-2,-4.717344E-3,-1.2402808E-1,-6.0187797E-3,-8.921566E-2,-5.545935E-2,2.6714478E-2,5.055969E-2,-1.1864877E-2,-6.0703505E-2,2.547125E-2],"categories":[],"categories_nodes":[],"categories_segments":[],"categories_sizes":[],"default_left":[0,0,0,0,0,0,0,0,0,0,0,0,0,0,0,0,0,0,0,0,0,0,0,0,0,0,0],"id":14,"left_children":[1,3,5,7,9,11,13,15,17,19,21,-1,-1,23,25,-1,-1,-1,-1,-1,-1,-1,-1,-1,-1,-1,-1],"loss_changes":[8.559705E0,8.255732E0,9.585963E0,2.3558455E1,9.712488E0,5.666869E0,3.5412712E0,5.010854E0,1.0722734E1,6.513349E0,6.440864E0,0E0,0E0,2.390833E0,5.0373087E0,0E0,0E0,0E0,0E0,0E0,0E0,0E0,0E0,0E0,0E0,0E0,0E0],"parents":[2147483647,0,0,1,1,2,2,3,3,4,4,5,5,6,6,7,7,8,8,9,9,10,10,13,13,14,14],"right_children":[2,4,6,8,10,12,14,16,18,20,22,-1,-1,24,26,-1,-1,-1,-1,-1,-1,-1,-1,-1,-1,-1,-1],"split_conditions":[8.2E-1,1.2658228E-2,4.56E2,-1.57E0,3.691275E-2,1.038961E-2,2.6345933E-2,3.8674034E-2,1.613E3,8.89E-1,3.960396E-2,2.9531581E-2,-8.848432E-2,6.343612E-2,2.8538812E-2,5.0040495E-2,-3.2692313E-2,-4.717344E-3,-1.2402808E-1,-6.0187797E-3,-8.921566E-2,-5.545935E-2,2.6714478E-2,5.055969E-2,-1.1864877E-2,-6.0703505E-2,2.547125E-2],"split_indices":[1,24,14,15,25,24,24,25,2,10,42,0,0,27,24,0,0,0,0,0,0,0,0,0,0,0,0],"split_type":[0,0,0,0,0,0,0,0,0,0,0,0,0,0,0,0,0,0,0,0,0,0,0,0,0,0,0],"sum_hessian":[9.684857E1,6.2346992E1,3.4501575E1,1.5583551E1,4.6763443E1,2.7154913E0,3.1786085E1,7.6027746E0,7.980777E0,1.0592434E1,3.6171005E1,1.000102E0,1.715389E0,2.3739666E1,8.046419E0,5.890477E0,1.7122974E0,2.8322072E0,5.1485696E0,8.197849E0,2.3945856E0,1.6336758E0,3.453733E1,2.2462868E1,1.2767982E0,1.1726693E0,6.8737497E0],"tree_param":{"num_deleted":"0","num_feature":"44","num_nodes":"27","size_leaf_vector":"1"}},{"base_weights":[1.9827951E-1,3.2513192E-1,-6.306251E-1,-1.0267591E-1,5.4943573E-1,-1.5873823E0,6.005452E-2,1.15325354E-1,-1.595491E0,-3.6527145E-1,6.4185596E-1,-1.023106E-1,9.209122E-3,5.263793E-1,-7.496546E-2,-1.8040424E-2,3.447856E-2,-1.01624645E-1,-1.4396876E-2,2.8674861E-2,-6.495763E-2,3.426367E-2,-2.1766208E-2,-1.8571317E-2,4.888269E-2],"categories":[],"categories_nodes":[],"categories_segments":[],"categories_sizes":[],"default_left":[0,0,0,0,1,1,1,0,0,0,0,0,0,0,0,0,0,0,0,0,0,0,0,0,0],"id":15,"left_children":[1,3,5,7,9,11,13,15,17,19,21,-1,-1,23,-1,-1,-1,-1,-1,-1,-1,-1,-1,-1,-1],"loss_changes":[1.0360385E1,8.15747E0,8.790861E0,9.908289E0,4.9297733E0,4.8908043E0,7.046948E0,7.632686E0,1.6289463E0,5.772159E0,2.6744862E0,0E0,0E0,3.3469849E0,0E0,0E0,0E0,0E0,0E0,0E0,0E0,0E0,0E0,0E0,0E0],"parents":[2147483647,0,0,1,1,2,2,3,3,4,4,5,5,6,6,7,7,8,8,9,9,10,10,13,13],"right_children":[2,4,6,8,10,12,14,16,18,20,22,-1,-1,24,-1,-1,-1,-1,-1,-1,-1,-1,-1,-1,-1],"split_conditions":[7.995619E-2,4.75E0,8.9E-1,3.005E-1,1.81779E1,6.402439E-2,6.0606062E-2,4.9079753E-2,5.8651026E-2,1.2E2,7.874016E-2,-1.023106E-1,9.209122E-3,4.1808873E-2,-7.496546E-2,-1.8040424E-2,3.447856E-2,-1.01624645E-1,-1.4396876E-2,2.8674861E-2,-6.495763E-2,3.426367E-2,-2.1766208E-2,-1.8571317E-2,4.888269E-2],"split_indices":[33,12,17,18,20,27,38,27,28,5,29,0,0,39,0,0,0,0,0,0,0,0,0,0,0],"split_type":[0,0,0,0,0,0,0,0,0,0,0,0,0,0,0,0,0,0,0,0,0,0,0,0,0],"sum_hessian":[9.558097E1,8.342213E1,1.2158846E1,2.8880835E1,5.454129E1,4.553234E0,7.6056123E0,2.6005852E1,2.8749833E0,4.7341256E0,4.9807163E1,3.4934185E0,1.0598154E0,6.3647003E0,1.2409118E0,1.4420681E1,1.1585172E1,1.7392715E0,1.1357119E0,2.5533311E0,2.1807947E0,4.822712E1,1.5800444E0,2.1882133E0,4.176487E0],"tree_param":{"num_deleted":"0","num_feature":"44","num_nodes":"25","size_leaf_vector":"1"}},{"base_weights":[2.2426286E-1,3.1365702E-1,-6.7799973E-1,3.5395196E-1,-7.373985E-2,-1.693706E0,2.110329E-1,6.5497863E-1,1.3011222E-1,-1.4533865E-2,-1.0217609E-1,-3.6747E-2,4.474994E-2,4.482443E-2,3.8388688E-3,1.5209339E-2,-4.6274148E-2],"categories":[],"categories_nodes":[],"categories_segments":[],"categories_sizes":[],"default_left":[0,0,0,0,0,0,0,0,0,0,0,0,0,0,0,0,0],"id":16,"left_children":[1,3,5,7,-1,9,11,13,15,-1,-1,-1,-1,-1,-1,-1,-1],"loss_changes":[8.030797E0,6.9269466E0,8.533366E0,5.8258142E0,0E0,1.5345211E0,4.357002E0,5.1208E0,9.755892E0,0E0,0E0,0E0,0E0,0E0,0E0,0E0,0E0],"parents":[2147483647,0,0,1,1,2,2,3,3,5,5,6,6,7,7,8,8],"right_children":[2,4,6,8,-1,10,12,14,16,-1,-1,-1,-1,-1,-1,-1,-1],"split_conditions":[3.09843E1,7.849E1,3.827751E-2,4.9411766E-2,-7.373985E-2,5.0632913E-2,4.7872342E-2,4.9086757E-2,5.19E0,-1.4533865E-2,-1.0217609E-1,-3.6747E-2,4.474994E-2,4.482443E-2,3.8388688E-3,1.5209339E-2,-4.6274148E-2],"split_indices":[20,16,25,38,0,41,37,37,17,0,0,0,0,0,0,0,0],"split_type":[0,0,0,0,0,0,0,0,0,0,0,0,0,0,0,0,0],"sum_hessian":[9.593068E1,8.787644E1,8.0542345E0,8.672458E1,1.1518664E0,3.3368373E0,4.717397E0,3.6163998E1,5.056058E1,1.0313362E0,2.3055012E0,1.9482723E0,2.769125E0,2.5120777E1,1.104322E1,4.4014187E1,6.546393E0],"tree_param":{"num_deleted":"0","num_feature":"44","num_nodes":"17","size_leaf_vector":"1"}},{"base_weights":[2.1200104E-1,1.05459064E-1,9.041329E-1,-2.0047785E-1,3.6051133E-1,1.4823674E-1,5.1986754E-2,-1.2811153E0,-1.1428347E-3,4.3710825E-1,-5.0166916E-2,3.034017E-2,-2.045926E-2,-9.435215E-2,3.3651017E-2,-8.122542E-2,6.1573624E-3,-1.4395252E-2,2.8885055E-2],"categories":[],"categories_nodes":[],"categories_segments":[],"categories_sizes":[],"default_left":[0,0,0,0,0,0,0,0,0,0,0,0,0,0,0,0,0,0,0],"id":17,"left_children":[1,3,5,7,9,11,-1,13,15,17,-1,-1,-1,-1,-1,-1,-1,-1,-1],"loss_changes":[7.0549493E0,6.7174544E0,1.1581888E0,8.47731E0,5.3276772E0,1.0441991E0,0E0,8.5271435E0,7.1070457E0,4.754121E0,0E0,0E0,0E0,0E0,0E0,0E0,0E0,0E0,0E0],"parents":[2147483647,0,0,1,1,2,2,3,3,4,4,5,5,7,7,8,8,9,9],"right_children":[2,4,6,8,10,12,-1,14,16,18,-1,-1,-1,-1,-1,-1,-1,-1,-1],"split_conditions":[9.75E0,-5.8E-1,3.587444E-2,3.6516853E-2,9.536785E-2,1.05E1,5.1986754E-2,7.5E0,-3.43E-1,4.56E2,-5.0166916E-2,3.034017E-2,-2.045926E-2,-9.435215E-2,3.3651017E-2,-8.122542E-2,6.1573624E-3,-1.4395252E-2,2.8885055E-2],"split_indices":[12,1,25,37,27,12,0,12,9,14,0,0,0,0,0,0,0,0,0],"split_type":[0,0,0,0,0,0,0,0,0,0,0,0,0,0,0,0,0,0,0],"sum_hessian":[9.5964905E1,8.4161964E1,1.180294E1,3.83613E1,4.5800667E1,2.1136816E0,9.68926E0,5.1289935E0,3.3232307E1,4.400855E1,1.7921165E0,1.1110666E0,1.002615E0,3.941247E0,1.1877465E0,1.5050035E0,3.1727304E1,6.9777412E0,3.7030807E1],"tree_param":{"num_deleted":"0","num_feature":"44","num_nodes":"19","size_leaf_vector":"1"}},{"base_weights":[1.3575508E-1,2.3917945E-1,-6.5689605E-1,-2.4666356E-1,4.0382195E-1,3.1014946E-1,-1.4382907E0,2.6692542E-1,-1.0652342E0,-5.6494355E-1,5.155944E-1,-3.2313664E-2,7.2431195E-1,3.0752083E-2,-1.9914913E0,-5.088836E-2,2.9557033E-2,2.2659639E-2,-7.783804E-2,-1.031607E-1,1.19202295E-2,2.8916359E-2,-3.2379705E-2,4.2162873E-2,8.108123E-3,-1.630002E-2,-1.17422834E-1],"categories":[],"categories_nodes":[],"categories_segments":[],"categories_sizes":[],"default_left":[0,0,0,0,0,0,0,0,0,0,0,0,0,0,0,0,0,0,0,0,0,0,0,0,0,0,0],"id":18,"left_children":[1,3,5,7,9,11,13,15,17,19,21,-1,23,-1,25,-1,-1,-1,-1,-1,-1,-1,-1,-1,-1,-1,-1],"loss_changes":[7.6030993E0,6.585014E0,8.569376E0,9.172638E0,6.889432E0,2.6970236E0,8.180214E0,6.345725E0,6.938472E0,8.652989E0,4.399172E0,0E0,1.5733767E-1,0E0,2.2424412E0,0E0,0E0,0E0,0E0,0E0,0E0,0E0,0E0,0E0,0E0,0E0,0E0],"parents":[2147483647,0,0,1,1,2,2,3,3,4,4,5,5,6,6,7,7,8,8,9,9,10,10,12,12,14,14],"right_children":[2,4,6,8,10,12,14,16,18,20,22,-1,24,-1,26,-1,-1,-1,-1,-1,-1,-1,-1,-1,-1,-1,-1],"split_conditions":[3.061E-1,4.4905007E-2,5.1533744E-2,5.7971016E-2,4.53E2,-5.3E0,3.8101606E-2,-1.08E0,3.1189084E-2,5.0473187E-2,1.137E1,-3.2313664E-2,5.4968286E-2,3.0752083E-2,-4.76E-1,-5.088836E-2,2.9557033E-2,2.2659639E-2,-7.783804E-2,-1.031607E-1,1.19202295E-2,2.8916359E-2,-3.2379705E-2,4.2162873E-2,8.108123E-3,-1.630002E-2,-1.17422834E-1],"split_indices":[18,29,42,32,14,15,40,1,25,33,17,0,29,0,9,0,0,0,0,0,0,0,0,0,0,0,0],"split_type":[0,0,0,0,0,0,0,0,0,0,0,0,0,0,0,0,0,0,0,0,0,0,0,0,0,0,0],"sum_hessian":[8.982744E1,8.0077286E1,9.750154E0,2.014204E1,5.9935246E1,4.6269603E0,5.1231933E0,1.2790755E1,7.3512845E0,5.780399E0,5.415485E1,1.2288201E0,3.3981402E0,1.0636014E0,4.059592E0,2.1464279E0,1.0644327E1,1.8168012E0,5.5344834E0,1.4701858E0,4.310213E0,5.186072E1,2.2941282E0,2.3919642E0,1.0061759E0,1.0542129E0,3.005379E0],"tree_param":{"num_deleted":"0","num_feature":"44","num_nodes":"27","size_leaf_vector":"1"}},{"base_weights":[1.387403E-1,-1.7423595E-1,4.2570627E-1,-4.1918612E-1,6.066849E-1,5.0698024E-1,-6.1227556E-2,9.496527E-2,-9.56513E-1,9.016813E-1,-1.6865851E-1,-4.425301E-2,5.6947064E-1,-5.063374E-2,1.9959215E-2,-6.663695E-2,2.1855371E-2,5.963361E-3,4.9960878E-2,3.7410986E-2,-6.8282045E-2,3.3969592E-2,-8.268592E-3],"categories":[],"categories_nodes":[],"categories_segments":[],"categories_sizes":[],"default_left":[0,0,0,0,0,0,0,0,0,0,0,0,0,0,0,0,0,0,0,0,0,0,0],"id":19,"left_children":[1,3,5,7,9,11,-1,13,15,17,19,-1,21,-1,-1,-1,-1,-1,-1,-1,-1,-1,-1],"loss_changes":[8.242334E0,8.71129E0,7.0231524E0,9.5518875E0,2.66003E0,4.523038E0,0E0,6.607802E0,9.409891E0,4.9900627E-1,5.263026E0,0E0,3.73308E0,0E0,0E0,0E0,0E0,0E0,0E0,0E0,0E0,0E0,0E0],"parents":[2147483647,0,0,1,1,2,2,3,3,4,4,5,5,7,7,8,8,9,9,10,10,12,12],"right_children":[2,4,6,8,10,12,-1,14,16,18,20,-1,22,-1,-1,-1,-1,-1,-1,-1,-1,-1,-1],"split_conditions":[-5.8E-1,8.25E0,9.536785E-2,3.986711E-2,6.6079296E-2,2.5026068E-2,-6.1227556E-2,3.6516853E-2,6.538462E-2,-3.75E-1,4.8447207E-2,-4.425301E-2,7.692308E-2,-5.063374E-2,1.9959215E-2,-6.663695E-2,2.1855371E-2,5.963361E-3,4.9960878E-2,3.7410986E-2,-6.8282045E-2,3.3969592E-2,-8.268592E-3],"split_indices":[1,12,27,35,43,35,0,37,38,9,28,0,33,0,0,0,0,0,0,0,0,0,0],"split_type":[0,0,0,0,0,0,0,0,0,0,0,0,0,0,0,0,0,0,0,0,0,0,0],"sum_hessian":[8.994576E1,4.3211E1,4.673476E1,3.3245995E1,9.965001E0,4.5201412E1,1.5333495E0,1.7410088E1,1.5835909E1,7.1005116E0,2.8644896E0,1.3764474E0,4.3824966E1,3.249633E0,1.4160455E1,1.2503982E1,3.331927E0,1.033423E0,6.0670886E0,1.8343244E0,1.0301651E0,3.8188072E1,5.636893E0],"tree_param":{"num_deleted":"0","num_feature":"44","num_nodes":"23","size_leaf_vector":"1"}},{"base_weights":[1.6362175E-1,-5.658964E-2,4.8397255E-1,-7.9180694E-1,1.3740136E-1,6.372894E-1,-2.54306E-1,-1.3165722E0,6.1047167E-1,-2.0882496E-1,4.935161E-1,7.37679E-1,-3.3093736E-2,-9.2386685E-2,4.3934408E-1,-8.535254E-2,-1.2479173E-2,5.2433913E-3,3.8067747E-2,-6.383253E-2,6.592495E-3,-1.0252199E-2,3.5101E-2,6.466339E-3,4.5635276E-2,-3.4748033E-2,4.5025516E-2],"categories":[],"categories_nodes":[],"categories_segments":[],"categories_sizes":[],"default_left":[0,0,0,0,1,0,0,0,0,0,0,0,0,0,0,0,0,0,0,0,0,0,0,0,0,0,0],"id":20,"left_children":[1,3,5,7,9,11,13,15,17,19,21,23,-1,-1,25,-1,-1,-1,-1,-1,-1,-1,-1,-1,-1,-1,-1],"loss_changes":[6.469025E0,7.954549E0,4.384428E0,9.363486E0,5.5746093E0,4.554018E0,8.691718E0,3.232583E0,2.1392858E-1,8.609398E0,3.373578E0,3.0135384E0,0E0,0E0,3.6467278E0,0E0,0E0,0E0,0E0,0E0,0E0,0E0,0E0,0E0,0E0,0E0,0E0],"parents":[2147483647,0,0,1,1,2,2,3,3,4,4,5,5,6,6,7,7,8,8,9,9,10,10,11,11,14,14],"right_children":[2,4,6,8,10,12,14,16,18,20,22,24,-1,-1,26,-1,-1,-1,-1,-1,-1,-1,-1,-1,-1,-1,-1],"split_conditions":[4.2E1,4.375E-2,6.727829E-2,1.181E-1,4.7029704E-2,7.24234E-2,3.587444E-2,6.393442E-2,4.8780486E-2,-6.898E-1,9.803922E-3,4.610951E-2,-3.3093736E-2,-9.2386685E-2,4.391892E-2,-8.535254E-2,-1.2479173E-2,5.2433913E-3,3.8067747E-2,-6.383253E-2,6.592495E-3,-1.0252199E-2,3.5101E-2,6.466339E-3,4.5635276E-2,-3.4748033E-2,4.5025516E-2],"split_indices":[4,39,31,19,27,28,25,30,43,19,34,31,0,0,28,0,0,0,0,0,0,0,0,0,0,0,0],"split_type":[0,0,0,0,0,0,0,0,0,0,0,0,0,0,0,0,0,0,0,0,0,0,0,0,0,0,0],"sum_hessian":[9.031259E1,5.400946E1,3.6303135E1,1.0632205E1,4.3377254E1,3.0173794E1,6.1293416E0,7.781359E0,2.850846E0,2.2203697E1,2.1173555E1,2.8410624E1,1.7631694E0,1.3543636E0,4.774978E0,5.257449E0,2.5239103E0,1.0447973E0,1.8060486E0,4.7059026E0,1.7497795E1,4.870912E0,1.6302645E1,6.736161E0,2.1674463E1,1.2336572E0,3.5413208E0],"tree_param":{"num_deleted":"0","num_feature":"44","num_nodes":"27","size_leaf_vector":"1"}},{"base_weights":[2.0326383E-1,-4.195249E-2,5.6539094E-1,-9.25285E-1,1.3788928E-1,6.830848E-1,-5.718849E-2,3.126991E-1,-1.5223908E0,-5.3165298E-2,9.1141E-1,-6.6274186E-3,8.297495E-1,3.618485E-2,-1.9861579E-2,-9.623926E-2,9.387998E-3,-4.035155E-2,9.867332E-3,7.924649E-3,5.0237834E-2,2.8456345E-2,-5.722005E-2,-2.0126222E-2,4.467042E-2],"categories":[],"categories_nodes":[],"categories_segments":[],"categories_sizes":[],"default_left":[0,0,0,0,0,0,0,0,0,1,0,0,0,0,0,0,0,0,0,0,0,0,0,0,0],"id":21,"left_children":[1,3,5,7,9,11,-1,13,15,17,19,21,23,-1,-1,-1,-1,-1,-1,-1,-1,-1,-1,-1,-1],"loss_changes":[7.6340303E0,8.393182E0,7.7557383E0,7.077891E0,6.5657144E0,3.3501291E0,0E0,1.3774431E0,4.6247845E0,7.016436E0,4.5853424E-1,5.099339E0,2.4991226E0,0E0,0E0,0E0,0E0,0E0,0E0,0E0,0E0,0E0,0E0,0E0,0E0],"parents":[2147483647,0,0,1,1,2,2,3,3,4,4,5,5,7,7,8,8,9,9,10,10,11,11,12,12],"right_children":[2,4,6,8,10,12,-1,14,16,18,20,22,24,-1,-1,-1,-1,-1,-1,-1,-1,-1,-1,-1,-1],"split_conditions":[1.25E0,-4.94E0,7.0063695E-2,-9.16E0,3.1E2,3.846154E-2,-5.718849E-2,5.2747253E-2,6.1363637E-2,-5.281E-1,4.5584045E-2,5.074627E-2,4.2792793E-2,3.618485E-2,-1.9861579E-2,-9.623926E-2,9.387998E-3,-4.035155E-2,9.867332E-3,7.924649E-3,5.0237834E-2,2.8456345E-2,-5.722005E-2,-2.0126222E-2,4.467042E-2],"split_indices":[0,17,27,17,5,26,0,28,29,18,32,29,41,0,0,0,0,0,0,0,0,0,0,0,0],"split_type":[0,0,0,0,0,0,0,0,0,0,0,0,0,0,0,0,0,0,0,0,0,0,0,0,0],"sum_hessian":[8.47022E1,5.1030663E1,3.367154E1,7.9309688E0,4.3099693E1,3.206394E1,1.6076032E0,2.73558E0,5.195389E0,3.5309696E1,7.7899976E0,5.7900753E0,2.627386E1,1.7202753E0,1.0153046E0,4.1041794E0,1.0912097E0,8.252854E0,2.7056843E1,1.1568627E0,6.633135E0,4.176437E0,1.6136384E0,1.0291432E0,2.5244719E1],"tree_param":{"num_deleted":"0","num_feature":"44","num_nodes":"25","size_leaf_vector":"1"}},{"base_weights":[7.373711E-2,-1.0408907E0,1.4086758E-1,-2.543764E-1,-9.4517656E-2,5.3052014E-1,-5.924864E-2,3.7228957E-2,-6.33372E-2,-9.62873E-1,7.028572E-1,7.056698E-1,-2.4501608E-1,-9.461463E-2,2.8408779E-2,4.265297E-2,-1.3133329E-2,4.218818E-2,-1.3286429E-2,-2.0721866E-2,2.7307287E-2],"categories":[],"categories_nodes":[],"categories_segments":[],"categories_sizes":[],"default_left":[0,0,0,0,0,0,1,0,0,0,0,0,0,0,0,0,0,0,0,0,0],"id":22,"left_children":[1,3,5,7,-1,9,11,-1,-1,13,15,17,19,-1,-1,-1,-1,-1,-1,-1,-1],"loss_changes":[6.5340066E0,2.8385549E0,6.378299E0,4.720679E0,0E0,7.810709E0,7.942248E0,0E0,0E0,5.756448E0,3.9119072E0,1.6919751E0,6.222565E0,0E0,0E0,0E0,0E0,0E0,0E0,0E0,0E0],"parents":[2147483647,0,0,1,1,2,2,3,3,5,5,6,6,9,9,10,10,11,11,12,12],"right_children":[2,4,6,8,-1,10,12,-1,-1,14,16,18,20,-1,-1,-1,-1,-1,-1,-1,-1],"split_conditions":[2.5026068E-2,3.1707317E-2,3.33E-1,7.822E1,-9.4517656E-2,3.629032E-2,4.4548653E-2,3.7228957E-2,-6.33372E-2,4.6488624E-2,7.032967E-2,5.55E0,6.081081E-2,-9.461463E-2,2.8408779E-2,4.265297E-2,-1.3133329E-2,4.218818E-2,-1.3286429E-2,-2.0721866E-2,2.7307287E-2],"split_indices":[35,36,10,15,0,28,38,0,0,27,43,17,27,0,0,0,0,0,0,0,0],"split_type":[0,0,0,0,0,0,0,0,0,0,0,0,0,0,0,0,0,0,0,0,0],"sum_hessian":[8.4363686E1,3.9683356E0,8.039535E1,2.7352414E0,1.2330945E0,2.6718962E1,5.3676388E1,1.5098807E0,1.2253606E0,2.2897658E0,2.4429195E1,9.941689E0,4.37347E1,1.2780083E0,1.0117576E0,2.1241268E1,3.1879275E0,8.819327E0,1.1223608E0,3.6413246E1,7.3214517E0],"tree_param":{"num_deleted":"0","num_feature":"44","num_nodes":"21","size_leaf_vector":"1"}},{"base_weights":[1.1386101E-1,5.472958E-1,-7.9416536E-2,-3.3693764E-1,7.2050804E-1,-2.7088857E-1,4.7551474E-1,-9.85406E-1,3.5583373E-2,-2.6964158E-2,8.493017E-1,-5.582638E-3,-9.182759E-1,7.744526E-1,-8.841366E-1,-9.411665E-2,1.4074652E-2,4.61295E-2,6.262466E-3,7.74965E-3,-5.642541E-2,-7.095231E-2,5.2044564E-3,4.4660114E-2,-1.5698193E-2,-8.2371615E-2,1.1384204E-2],"categories":[],"categories_nodes":[],"categories_segments":[],"categories_sizes":[],"default_left":[0,0,0,0,0,0,0,1,0,0,0,0,0,0,0,0,0,0,0,0,0,0,0,0,0,0,0],"id":23,"left_children":[1,3,5,7,9,11,13,15,-1,-1,17,19,21,23,25,-1,-1,-1,-1,-1,-1,-1,-1,-1,-1,-1,-1],"loss_changes":[7.615514E0,4.5315742E0,6.8637457E0,4.28358E0,4.308922E0,8.198339E0,7.4411325E0,4.705268E0,0E0,0E0,1.0476732E0,6.4651318E0,7.2526646E0,2.1105938E0,3.313952E0,0E0,0E0,0E0,0E0,0E0,0E0,0E0,0E0,0E0,0E0,0E0,0E0],"parents":[2147483647,0,0,1,1,2,2,3,3,4,4,5,5,6,6,7,7,10,10,11,11,12,12,13,13,14,14],"right_children":[2,4,6,8,10,12,14,16,-1,-1,18,20,22,24,26,-1,-1,-1,-1,-1,-1,-1,-1,-1,-1,-1,-1],"split_conditions":[-2.41E-1,5.2E-1,3.1E2,2.2332506E-2,3.35E2,4.6153847E-2,6.727829E-2,2.48657E1,3.5583373E-2,-2.6964158E-2,3E0,2.092E-1,5.827506E-2,7.4074075E-2,1.86E-1,-9.411665E-2,1.4074652E-2,4.61295E-2,6.262466E-3,7.74965E-3,-5.642541E-2,-7.095231E-2,5.2044564E-3,4.4660114E-2,-1.5698193E-2,-8.2371615E-2,1.1384204E-2],"split_indices":[9,1,5,24,14,35,31,20,0,0,0,19,42,33,9,0,0,0,0,0,0,0,0,0,0,0,0],"split_type":[0,0,0,0,0,0,0,0,0,0,0,0,0,0,0,0,0,0,0,0,0,0,0,0,0,0,0],"sum_hessian":[8.9387474E1,2.7002136E1,6.2385334E1,4.268185E0,2.2733952E1,4.676241E1,1.5622928E1,2.67451E0,1.5936753E0,1.8129967E0,2.0920956E1,3.3884724E1,1.2877683E1,1.3159939E1,2.4629889E0,1.2814801E0,1.3930298E0,1.8748987E1,2.1719682E0,3.0399626E1,3.485099E0,8.383373E0,4.4943094E0,1.2027101E1,1.1328378E0,1.1747485E0,1.2882402E0],"tree_param":{"num_deleted":"0","num_feature":"44","num_nodes":"27","size_leaf_vector":"1"}},{"base_weights":[1.09688096E-1,-4.4957E-2,5.833651E-1,6.458432E-2,-7.7269346E-1,-3.2765884E-2,7.2727644E-1,1.7185406E-1,-9.42729E-1,-1.464146E0,1.2790129E-1,2.6729327E-1,5.1491696E-2,1.5542189E-2,-2.8873691E-2,3.138079E-2,-7.1319E-2,-1.0008403E-1,8.650933E-3,-5.9545595E-2,4.1871626E-2,3.5021435E-2,-4.1466847E-2],"categories":[],"categories_nodes":[],"categories_segments":[],"categories_sizes":[],"default_left":[0,0,0,0,0,0,0,1,0,0,0,0,0,0,0,0,0,0,0,0,0,0,0],"id":24,"left_children":[1,3,5,7,9,-1,11,13,15,17,19,21,-1,-1,-1,-1,-1,-1,-1,-1,-1,-1,-1],"loss_changes":[6.5661464E0,5.4893665E0,4.4064384E0,6.67014E0,5.7943945E0,0E0,2.539443E0,5.9367843E0,5.414892E0,4.899534E0,5.517273E0,5.0340276E0,0E0,0E0,0E0,0E0,0E0,0E0,0E0,0E0,0E0,0E0,0E0],"parents":[2147483647,0,0,1,1,2,2,3,3,4,4,6,6,7,7,8,8,9,9,10,10,11,11],"right_children":[2,4,6,8,10,-1,12,14,16,18,20,22,-1,-1,-1,-1,-1,-1,-1,-1,-1,-1,-1],"split_conditions":[7.75E0,5.65E0,4.152249E-2,3.33029E1,4.8780486E-2,-3.2765884E-2,4.6488624E-2,7.2961375E-2,2.9850746E-2,1.5108E2,4.195804E-2,6.0546875E-2,5.1491696E-2,1.5542189E-2,-2.8873691E-2,3.138079E-2,-7.1319E-2,-1.0008403E-1,8.650933E-3,-5.9545595E-2,4.1871626E-2,3.5021435E-2,-4.1466847E-2],"split_indices":[12,17,29,20,27,0,27,43,35,6,26,30,0,0,0,0,0,0,0,0,0,0,0],"split_type":[0,0,0,0,0,0,0,0,0,0,0,0,0,0,0,0,0,0,0,0,0,0,0],"sum_hessian":[8.827996E1,6.7234474E1,2.1045486E1,5.92302E1,8.004275E0,1.8206927E0,1.9224794E1,5.427934E1,4.950864E0,4.173907E0,3.8303685E0,8.375232E0,1.0849562E1,4.628019E1,7.99915E0,1.0956815E0,3.8551824E0,2.9745982E0,1.1993084E0,1.1025668E0,2.7278018E0,6.262877E0,2.1123552E0],"tree_param":{"num_deleted":"0","num_feature":"44","num_nodes":"23","size_leaf_vector":"1"}},{"base_weights":[1.3636719E-1,3.0386862E-1,-3.734672E-1,7.814703E-1,2.7459994E-2,2.1299617E-2,-1.2931292E0,1.6886899E-1,9.2827344E-1,-4.278604E-1,3.7937415E-1,5.7082456E-1,-4.2787045E-1,-1.9954331E0,2.0306094E-1,-2.9464899E-2,4.1570764E-2,1.4468371E-2,5.2783407E-2,-3.971867E-3,-1.0002605E-1,2.8404027E-2,-7.3592596E-2,-3.144182E-2,4.2575773E-2,8.881562E-3,-7.070824E-2,-1.3339636E-1,6.5489667E-3,2.9855883E-2,-1.4504236E-2],"categories":[],"categories_nodes":[],"categories_segments":[],"categories_sizes":[],"default_left":[0,0,0,0,0,0,0,0,1,0,1,0,0,0,0,0,0,0,0,0,0,0,0,0,0,0,0,0,0,0,0],"id":25,"left_children":[1,3,5,7,9,11,13,15,17,19,21,23,25,27,29,-1,-1,-1,-1,-1,-1,-1,-1,-1,-1,-1,-1,-1,-1,-1,-1],"loss_changes":[7.629503E0,8.796791E0,8.092172E0,2.0421486E0,7.10804E0,4.323301E0,7.4324293E0,3.4782772E0,1.2818336E0,1.0453419E1,9.562648E0,3.182535E0,6.0230265E0,6.9898605E0,7.647446E-1,0E0,0E0,0E0,0E0,0E0,0E0,0E0,0E0,0E0,0E0,0E0,0E0,0E0,0E0,0E0,0E0],"parents":[2147483647,0,0,1,1,2,2,3,3,4,4,5,5,6,6,7,7,8,8,9,9,10,10,11,11,12,12,13,13,14,14],"right_children":[2,4,6,8,10,12,14,16,18,20,22,24,26,28,30,-1,-1,-1,-1,-1,-1,-1,-1,-1,-1,-1,-1,-1,-1,-1,-1],"split_conditions":[4.69E-1,-1.36E0,2.7203482E-2,1.4E1,4.6488624E-2,5.214724E-2,5.6896552E-2,5.485232E-2,2.04279E1,6.4935066E-2,2.148E-1,1.5172414E-2,5.3412464E-2,6.3917525E-2,1.859E3,-2.9464899E-2,4.1570764E-2,1.4468371E-2,5.2783407E-2,-3.971867E-3,-1.0002605E-1,2.8404027E-2,-7.3592596E-2,-3.144182E-2,4.2575773E-2,8.881562E-3,-7.070824E-2,-1.3339636E-1,6.5489667E-3,2.9855883E-2,-1.4504236E-2],"split_indices":[9,17,34,4,27,43,29,30,20,31,19,37,28,43,2,0,0,0,0,0,0,0,0,0,0,0,0,0,0,0,0],"split_type":[0,0,0,0,0,0,0,0,0,0,0,0,0,0,0,0,0,0,0,0,0,0,0,0,0,0,0,0,0,0,0],"sum_hessian":[8.701166E1,6.579823E1,2.121342E1,2.345079E1,4.2347446E1,1.5525785E1,5.6876364E0,4.9490395E0,1.850175E1,1.83673E1,2.3980146E1,6.861017E0,8.664767E0,3.6436496E0,2.0439866E0,2.3595304E0,2.589509E0,3.6197112E0,1.488204E1,1.5896041E1,2.471258E0,2.2390848E1,1.5892984E0,1.0657463E0,5.795271E0,5.8768044E0,2.7879632E0,2.5747151E0,1.0689344E0,1.0189457E0,1.0250407E0],"tree_param":{"num_deleted":"0","num_feature":"44","num_nodes":"31","size_leaf_vector":"1"}},{"base_weights":[6.2114462E-2,3.663077E-1,-1.3562779E-1,4.601015E-1,-6.1418213E-2,-6.681629E-1,1.709197E-1,6.492901E-1,-1.6421515E-1,-1.1529739E0,-6.970542E-3,-2.0492846E-1,5.492771E-1,4.013789E-2,-8.462544E-3,1.1554499E-2,-6.388577E-2,-7.816373E-2,3.572372E-2,1.9378906E-2,-6.300319E-2,1.7390346E-2,-5.4492723E-2,4.5110982E-2,-1.34609435E-2],"categories":[],"categories_nodes":[],"categories_segments":[],"categories_sizes":[],"default_left":[0,0,0,0,0,0,1,0,0,0,0,0,0,0,0,0,0,0,0,0,0,0,0,0,0],"id":26,"left_children":[1,3,5,7,-1,9,11,13,15,17,19,21,23,-1,-1,-1,-1,-1,-1,-1,-1,-1,-1,-1,-1],"loss_changes":[5.4010243E0,5.8477516E0,9.034934E0,4.132401E0,0E0,6.4567842E0,5.157683E0,3.4471083E0,4.1356378E0,1.0027827E1,5.203983E0,9.440783E0,5.428789E0,0E0,0E0,0E0,0E0,0E0,0E0,0E0,0E0,0E0,0E0,0E0,0E0],"parents":[2147483647,0,0,1,1,2,2,3,3,5,5,6,6,7,7,8,8,9,9,10,10,11,11,12,12],"right_children":[2,4,6,8,-1,10,12,14,16,18,20,22,24,-1,-1,-1,-1,-1,-1,-1,-1,-1,-1,-1,-1],"split_conditions":[4.9833886E-2,7.849E1,5.5235904E-2,6.696428E-2,-6.1418213E-2,5.5555556E-2,4.9327355E-2,7.692308E-2,5.0048124E-2,8E0,3.68E0,5.9684686E-2,5.1194537E-2,4.013789E-2,-8.462544E-3,1.1554499E-2,-6.388577E-2,-7.816373E-2,3.572372E-2,1.9378906E-2,-6.300319E-2,1.7390346E-2,-5.4492723E-2,4.5110982E-2,-1.34609435E-2],"split_indices":[30,16,30,43,0,31,27,33,35,12,17,33,26,0,0,0,0,0,0,0,0,0,0,0,0],"split_type":[0,0,0,0,0,0,0,0,0,0,0,0,0,0,0,0,0,0,0,0,0,0,0,0,0],"sum_hessian":[8.796388E1,3.4318375E1,5.3645508E1,3.3083954E1,1.234422E0,1.9167696E1,3.447781E1,2.5359259E1,7.7246957E0,1.0629771E1,8.537926E0,1.752621E1,1.6951601E1,2.1371593E1,3.9876652E0,6.2856755E0,1.4390204E0,8.848526E0,1.7812448E0,7.018717E0,1.5192088E0,1.1161542E1,6.364668E0,1.1772785E1,5.1788163E0],"tree_param":{"num_deleted":"0","num_feature":"44","num_nodes":"25","size_leaf_vector":"1"}},{"base_weights":[8.5097216E-2,2.232979E-1,-4.119344E-1,6.815863E-1,2.8744705E-2,2.8703684E-1,-7.419398E-1,-2.4417984E-1,8.749504E-1,-1.7690085E-1,7.123444E-1,-5.829705E-1,4.4908054E-2,2.3194396E-1,-1.2365289E0,-4.322939E-2,3.283941E-2,4.8869222E-2,-1.23849455E-2,4.006524E-3,-5.4058637E-2,4.6002444E-2,-2.577429E-2,3.1159861E-2,-7.219509E-2,-3.7460443E-2,3.283749E-2,-9.686705E-2,-7.829374E-3],"categories":[],"categories_nodes":[],"categories_segments":[],"categories_sizes":[],"default_left":[1,0,0,0,0,0,1,0,0,0,0,0,0,0,0,0,0,0,0,0,0,0,0,0,0,0,0,0,0],"id":27,"left_children":[1,3,5,7,9,11,13,15,17,19,21,23,-1,25,27,-1,-1,-1,-1,-1,-1,-1,-1,-1,-1,-1,-1,-1,-1],"loss_changes":[6.00114E0,6.0397296E0,4.6111183E0,3.83115E0,6.979331E0,4.1582775E0,6.659891E0,2.9565632E0,2.189578E0,8.983363E0,3.4001608E0,4.458579E0,0E0,2.7004025E0,6.4572954E0,0E0,0E0,0E0,0E0,0E0,0E0,0E0,0E0,0E0,0E0,0E0,0E0,0E0,0E0],"parents":[2147483647,0,0,1,1,2,2,3,3,4,4,5,5,6,6,7,7,8,8,9,9,10,10,11,11,13,13,14,14],"right_children":[2,4,6,8,10,12,14,16,18,20,22,24,-1,26,28,-1,-1,-1,-1,-1,-1,-1,-1,-1,-1,-1,-1,-1,-1],"split_conditions":[6.710671E-2,2.38E-1,1.3368984E-2,4.5707915E-2,1.7267E2,-4.3E0,3.5714287E-2,5.6806E-2,7.97546E-2,3.58E0,2.93307E1,4.2105265E-2,4.4908054E-2,4.8262548E-2,5.1819183E-2,-4.322939E-2,3.283941E-2,4.8869222E-2,-1.23849455E-2,4.006524E-3,-5.4058637E-2,4.6002444E-2,-2.577429E-2,3.1159861E-2,-7.219509E-2,-3.7460443E-2,3.283749E-2,-9.686705E-2,-7.829374E-3],"split_indices":[43,10,34,39,6,16,25,30,39,17,20,26,0,41,31,0,0,0,0,0,0,0,0,0,0,0,0,0,0],"split_type":[0,0,0,0,0,0,0,0,0,0,0,0,0,0,0,0,0,0,0,0,0,0,0,0,0,0,0,0,0],"sum_hessian":[8.502631E1,6.695897E1,1.8067345E1,1.9208406E1,4.775056E1,5.8361764E0,1.2231168E1,3.2734349E0,1.5934972E1,3.7277645E1,1.0472917E1,2.4270515E0,3.4091249E0,4.298375E0,7.9327927E0,1.9624605E0,1.3109742E0,1.4721162E1,1.2138106E0,2.973665E1,7.5409946E0,9.172015E0,1.3009015E0,1.1258574E0,1.3011941E0,1.0680056E0,3.2303693E0,4.329376E0,3.6034164E0],"tree_param":{"num_deleted":"0","num_feature":"44","num_nodes":"29","size_leaf_vector":"1"}},{"base_weights":[1.1835089E-1,3.900341E-1,-8.724999E-2,5.799292E-1,-4.2726022E-1,2.622601E-1,-4.2923993E-1,-3.530578E-2,6.5156126E-1,5.168644E-1,-1.4276388E0,-7.6445836E-1,5.112254E-1,-1.3563806E0,-8.246848E-2,3.61069E-2,-1.1525939E-2,-1.6898459E-2,4.2785402E-2,-1.1616182E-2,-9.0992235E-2,1.6131725E-2,-8.23736E-2,-1.4459017E-2,3.7170958E-2,-1.00870885E-1,9.645087E-3,-3.86624E-2,1.2903708E-2],"categories":[],"categories_nodes":[],"categories_segments":[],"categories_sizes":[],"default_left":[0,0,0,0,0,0,0,0,0,0,0,0,0,0,0,0,0,0,0,0,0,0,0,0,0,0,0,0,0],"id":28,"left_children":[1,3,5,7,9,11,13,-1,15,17,19,21,23,25,27,-1,-1,-1,-1,-1,-1,-1,-1,-1,-1,-1,-1,-1,-1],"loss_changes":[4.902875E0,6.103599E0,6.1408296E0,3.3196573E0,8.000518E0,6.925212E0,8.205571E0,0E0,2.029338E0,1.6477376E0,1.452138E0,5.70522E0,4.150062E0,7.5349445E0,4.8791428E0,0E0,0E0,0E0,0E0,0E0,0E0,0E0,0E0,0E0,0E0,0E0,0E0,0E0,0E0],"parents":[2147483647,0,0,1,1,2,2,3,3,4,4,5,5,6,6,8,8,9,9,10,10,11,11,12,12,13,13,14,14],"right_children":[2,4,6,8,10,12,14,-1,16,18,20,22,24,26,28,-1,-1,-1,-1,-1,-1,-1,-1,-1,-1,-1,-1,-1,-1],"split_conditions":[4.85E-1,7.692308E-2,5.1764704E-2,2.5026068E-2,5.7E-1,3.547067E-2,5.5235904E-2,-3.530578E-2,8.366534E-2,-3.3E-1,-7.92E-1,3.663004E-2,4.2704627E-2,-1.547E-1,7.3E1,3.61069E-2,-1.1525939E-2,-1.6898459E-2,4.2785402E-2,-1.1616182E-2,-9.0992235E-2,1.6131725E-2,-8.23736E-2,-1.4459017E-2,3.7170958E-2,-1.00870885E-1,9.645087E-3,-3.86624E-2,1.2903708E-2],"split_indices":[10,33,30,35,13,37,30,0,43,13,9,33,28,19,5,0,0,0,0,0,0,0,0,0,0,0,0,0,0],"split_type":[0,0,0,0,0,0,0,0,0,0,0,0,0,0,0,0,0,0,0,0,0,0,0,0,0,0,0,0,0],"sum_hessian":[8.61642E1,3.673075E1,4.9433453E1,3.004122E1,6.68953E0,2.4563229E1,2.4870224E1,1.1176678E0,2.8923553E1,3.6901846E0,2.999345E0,4.3897223E0,2.0173506E1,5.977394E0,1.889283E1,2.6948668E1,1.9748847E0,1.048248E0,2.6419368E0,1.134404E0,1.864941E0,2.2519412E0,2.1377814E0,4.4810944E0,1.5692411E1,3.977948E0,1.999446E0,5.8188496E0,1.307398E1],"tree_param":{"num_deleted":"0","num_feature":"44","num_nodes":"29","size_leaf_vector":"1"}},{"base_weights":[8.797003E-2,-9.8391056E-2,4.770902E-1,-6.229486E-1,1.6878232E-1,7.4885046E-1,-4.527918E-1,-2.208431E-1,-1.6579192E0,-5.3775537E-1,3.283574E-1,8.680762E-1,-2.4553558E-2,4.3278277E-1,-1.4784807E0,9.334053E-3,-5.4392632E-2,-1.1515989E-1,-2.0233836E-4,-6.4424165E-2,2.235463E-2,2.135776E-2,-2.7184842E-2,-1.5025306E-2,4.729527E-2,-2.0312019E-2,3.969379E-2,-8.055283E-3,-1.1268844E-1],"categories":[],"categories_nodes":[],"categories_segments":[],"categories_sizes":[],"default_left":[0,0,0,0,0,0,0,0,0,0,0,0,0,0,0,0,0,0,0,0,0,0,0,0,0,0,0,0,0],"id":29,"left_children":[1,3,5,7,9,11,13,15,17,19,21,23,-1,25,27,-1,-1,-1,-1,-1,-1,-1,-1,-1,-1,-1,-1,-1,-1],"loss_changes":[6.184755E0,8.242054E0,7.3087583E0,7.876319E0,4.6022844E0,3.6371136E0,6.871585E0,5.650517E0,5.7409077E0,6.2035503E0,3.0446239E0,2.1192236E0,0E0,1.6723311E0,3.114893E0,0E0,0E0,0E0,0E0,0E0,0E0,0E0,0E0,0E0,0E0,0E0,0E0,0E0,0E0],"parents":[2147483647,0,0,1,1,2,2,3,3,4,4,5,5,6,6,7,7,8,8,9,9,10,10,11,11,13,13,14,14],"right_children":[2,4,6,8,10,12,14,16,18,20,22,24,-1,26,28,-1,-1,-1,-1,-1,-1,-1,-1,-1,-1,-1,-1,-1,-1],"split_conditions":[1.5E0,4.7013976E-2,6.748466E-2,5E-2,1E1,7.24234E-2,5.2854124E-2,4.5499504E-2,6.22665E-2,5.1671732E-2,3.377E-1,1.81779E1,-2.4553558E-2,-6.257E-1,-9.93E-2,9.334053E-3,-5.4392632E-2,-1.1515989E-1,-2.0233836E-4,-6.4424165E-2,2.235463E-2,2.135776E-2,-2.7184842E-2,-1.5025306E-2,4.729527E-2,-2.0312019E-2,3.969379E-2,-8.055283E-3,-1.1268844E-1],"split_indices":[0,29,31,26,4,28,40,35,26,27,18,20,0,18,18,0,0,0,0,0,0,0,0,0,0,0,0,0,0],"split_type":[0,0,0,0,0,0,0,0,0,0,0,0,0,0,0,0,0,0,0,0,0,0,0,0,0,0,0,0,0],"sum_hessian":[8.363982E1,5.7059494E1,2.6580322E1,1.8805635E1,3.825386E1,2.071964E1,5.860683E0,1.4417533E1,4.3881016E0,6.6113586E0,3.1642502E1,1.917568E1,1.5439597E0,3.4553812E0,2.4053018E0,1.0341403E1,4.07613E0,2.8741195E0,1.513982E0,3.5766504E0,3.0347085E0,2.888069E1,2.7618117E0,1.0187242E0,1.8156956E1,1.0020419E0,2.453339E0,1.3385793E0,1.0667226E0],"tree_param":{"num_deleted":"0","num_feature":"44","num_nodes":"29","size_leaf_vector":"1"}},{"base_weights":[2.9056028E-2,-3.229335E-1,2.0931248E-1,2.4647704E-1,-7.4038905E-1,2.9319617E-1,-9.636978E-1,5.160436E-1,-4.0349104E-2,-3.016371E-1,-1.9220171E0,4.4754988E-1,-3.8676828E-1,-8.312822E-2,8.621604E-4,3.976908E-2,-2.0723833E-2,-3.9082292E-2,2.1011053E-2,-1.16765074E-1,-1.5374223E-2,1.3603321E-2,5.035442E-2,1.1783347E-2,-6.9587804E-2],"categories":[],"categories_nodes":[],"categories_segments":[],"categories_sizes":[],"default_left":[0,0,0,0,0,0,0,0,0,0,0,0,0,0,0,0,0,0,0,0,0,0,0,0,0],"id":30,"left_children":[1,3,5,7,9,11,13,15,-1,17,19,21,23,-1,-1,-1,-1,-1,-1,-1,-1,-1,-1,-1,-1],"loss_changes":[5.315225E0,6.934169E0,5.7242002E0,4.041512E0,8.046297E0,5.6705537E0,2.7188575E0,3.1302457E0,0E0,4.9436007E0,2.1638641E0,3.9631157E0,6.7253065E0,0E0,0E0,0E0,0E0,0E0,0E0,0E0,0E0,0E0,0E0,0E0,0E0],"parents":[2147483647,0,0,1,1,2,2,3,3,4,4,5,5,6,6,7,7,9,9,10,10,11,11,12,12],"right_children":[2,4,6,8,10,12,14,16,-1,18,20,22,24,-1,-1,-1,-1,-1,-1,-1,-1,-1,-1,-1,-1],"split_conditions":[4.7013976E-2,-8.9E-1,2.148E-1,6.7464635E-2,5.0111357E-2,7.692308E-2,5.263158E-2,6.583428E-2,-4.0349104E-2,1.76E0,5.7471264E-2,5.882353E-2,5.2E-1,-8.312822E-2,8.621604E-4,3.976908E-2,-2.0723833E-2,-3.9082292E-2,2.1011053E-2,-1.16765074E-1,-1.5374223E-2,1.3603321E-2,5.035442E-2,1.1783347E-2,-6.9587804E-2],"split_indices":[29,17,19,41,26,33,33,43,0,15,26,38,13,0,0,0,0,0,0,0,0,0,0,0,0],"split_type":[0,0,0,0,0,0,0,0,0,0,0,0,0,0,0,0,0,0,0,0,0,0,0,0,0],"sum_hessian":[8.1707085E1,2.740378E1,5.4303303E1,1.1765364E1,1.5638416E1,5.137915E1,2.924151E0,9.774372E0,1.9909918E0,1.2319367E1,3.319049E0,4.215228E1,9.226872E0,1.3018134E0,1.6223375E0,7.6293154E0,2.1450565E0,7.349439E0,4.969928E0,2.2871609E0,1.0318879E0,3.3219997E1,8.9322815E0,6.170624E0,3.056249E0],"tree_param":{"num_deleted":"0","num_feature":"44","num_nodes":"25","size_leaf_vector":"1"}},{"base_weights":[1.19244836E-1,2.4757646E-1,-3.564895E-1,1.0078629E-1,7.710224E-1,3.0746117E-1,-7.995958E-1,2.1889009E-1,-1.2492745E0,8.907318E-1,-1.8491672E-2,6.6234565E-1,-2.6260732E-2,-1.304957E0,1.1686582E-1,-8.260902E-3,2.4015086E-2,-9.6057944E-2,-5.743233E-4,5.1113345E-2,-1.4342733E-2,-2.6446485E-3,4.4270534E-2,-9.154021E-2,5.0631063E-3,-3.632322E-2,3.93708E-2],"categories":[],"categories_nodes":[],"categories_segments":[],"categories_sizes":[],"default_left":[0,0,0,0,0,0,0,0,0,0,0,0,0,0,0,0,0,0,0,0,0,0,0,0,0,0,0],"id":31,"left_children":[1,3,5,7,9,11,13,15,17,19,-1,21,-1,23,25,-1,-1,-1,-1,-1,-1,-1,-1,-1,-1,-1,-1],"loss_changes":[5.2152452E0,5.0493827E0,5.6151857E0,8.766158E0,2.3047485E0,2.7199378E0,5.3505673E0,5.0827637E0,3.6652765E0,2.366273E0,0E0,1.0153718E0,0E0,5.5955896E0,3.346897E0,0E0,0E0,0E0,0E0,0E0,0E0,0E0,0E0,0E0,0E0,0E0,0E0],"parents":[2147483647,0,0,1,1,2,2,3,3,4,4,5,5,6,6,7,7,8,8,9,9,11,11,13,13,14,14],"right_children":[2,4,6,8,10,12,14,16,18,20,-1,22,-1,24,26,-1,-1,-1,-1,-1,-1,-1,-1,-1,-1,-1,-1],"split_conditions":[3.68E0,8E0,4.9327355E-2,9.9E1,1.996E3,5.5E-2,2.46079E1,5.2459016E-2,5.5194806E-2,7.159353E-2,-1.8491672E-2,1.1E1,-2.6260732E-2,5E0,4.3290045E-2,-8.260902E-3,2.4015086E-2,-9.6057944E-2,-5.743233E-4,5.1113345E-2,-1.4342733E-2,-2.6446485E-3,4.4270534E-2,-9.154021E-2,5.0631063E-3,-3.632322E-2,3.93708E-2],"split_indices":[17,12,30,4,2,39,20,33,29,33,0,21,0,22,26,0,0,0,0,0,0,0,0,0,0,0,0],"split_type":[0,0,0,0,0,0,0,0,0,0,0,0,0,0,0,0,0,0,0,0,0,0,0,0,0,0,0],"sum_hessian":[8.297771E1,6.57271E1,1.7250608E1,5.2263393E1,1.3463704E1,7.027188E0,1.0223421E1,4.8829628E1,3.4337668E0,1.2383547E1,1.0801573E0,5.0706472E0,1.9565406E0,6.3164525E0,3.9069684E0,1.992321E1,2.8906416E1,1.8678094E0,1.5659573E0,1.1257943E1,1.125603E0,1.3868178E0,3.6838295E0,4.3775578E0,1.9388947E0,1.6935976E0,2.2133708E0],"tree_param":{"num_deleted":"0","num_feature":"44","num_nodes":"27","size_leaf_vector":"1"}},{"base_weights":[9.662038E-2,-5.561616E-2,6.050559E-1,2.359759E-1,-3.3486247E-1,5.011655E-2,2.0013925E-1,4.5779738E-1,-5.534981E-1,-1.6221514E-1,-1.244755E0,5.839284E-1,-5.44014E-1,3.849731E-3,4.437514E-2,-1.8853965E-4,-9.194398E-2,-1.7765834E-3,-7.067398E-2,-1.0561384E-1,6.723168E-3,4.5382354E-2,-8.475932E-3,-7.326861E-2,1.9322963E-2],"categories":[],"categories_nodes":[],"categories_segments":[],"categories_sizes":[],"default_left":[0,0,0,0,1,0,0,0,0,0,0,0,0,0,0,0,0,0,0,0,0,0,0,0,0],"id":32,"left_children":[1,3,5,7,9,-1,11,13,15,17,19,21,23,-1,-1,-1,-1,-1,-1,-1,-1,-1,-1,-1,-1],"loss_changes":[6.5401206E0,5.421081E0,2.928815E0,5.9764447E0,5.1275334E0,0E0,3.426053E0,4.195849E0,5.3780756E0,4.652143E0,6.5785723E0,2.0228631E0,4.1849384E0,0E0,0E0,0E0,0E0,0E0,0E0,0E0,0E0,0E0,0E0,0E0,0E0],"parents":[2147483647,0,0,1,1,2,2,3,3,4,4,6,6,7,7,8,8,9,9,10,10,11,11,12,12],"right_children":[2,4,6,8,10,-1,12,14,16,18,20,22,24,-1,-1,-1,-1,-1,-1,-1,-1,-1,-1,-1,-1],"split_conditions":[7.75E0,1.8404908E-2,5.1526718E-2,6.4E-1,7.2961375E-2,5.011655E-2,6.3144326E-2,1.2658228E-2,1.6133E2,7.25E0,-2.81E0,4E0,5.0847456E-2,3.849731E-3,4.437514E-2,-1.8853965E-4,-9.194398E-2,-1.7765834E-3,-7.067398E-2,-1.0561384E-1,6.723168E-3,4.5382354E-2,-8.475932E-3,-7.326861E-2,1.9322963E-2],"split_indices":[12,24,30,13,43,0,32,24,6,12,15,22,41,0,0,0,0,0,0,0,0,0,0,0,0],"split_type":[0,0,0,0,0,0,0,0,0,0,0,0,0,0,0,0,0,0,0,0,0,0,0,0,0],"sum_hessian":[8.306024E1,6.460633E1,1.8453913E1,3.1680332E1,3.2926E1,8.570123E0,9.88379E0,2.5059418E1,6.620915E0,2.8665207E1,4.2607923E0,6.662822E0,3.220968E0,1.3910862E1,1.1148556E1,5.3400397E0,1.2808753E0,2.6963682E1,1.7015244E0,2.2893188E0,1.9714736E0,4.517302E0,2.1455195E0,1.3295625E0,1.8914053E0],"tree_param":{"num_deleted":"0","num_feature":"44","num_nodes":"25","size_leaf_vector":"1"}},{"base_weights":[9.409143E-2,2.272663E-1,-3.1497607E-1,-1.2603876E-1,4.5214087E-1,-5.024978E-1,3.942362E-2,3.466081E-1,-1.0156336E0,-1.6340262E-1,5.729696E-1,-8.175522E-2,-1.9849762E-1,3.757101E-2,-1.3400368E-2,-7.4192435E-2,2.0712232E-2,-4.7339704E-2,3.3714894E-2,-1.4885838E-2,3.1721137E-2,-2.9071776E-2,2.374832E-2],"categories":[],"categories_nodes":[],"categories_segments":[],"categories_sizes":[],"default_left":[0,0,0,0,0,0,0,0,0,0,0,0,0,0,0,0,0,0,0,0,0,0,0],"id":33,"left_children":[1,3,5,7,9,11,-1,13,15,17,19,-1,21,-1,-1,-1,-1,-1,-1,-1,-1,-1,-1],"loss_changes":[4.486734E0,4.960717E0,4.601637E0,1.077436E1,2.9149647E0,5.8670273E0,0E0,4.4143424E0,6.5429068E0,5.23381E0,1.8974066E0,0E0,4.225919E0,0E0,0E0,0E0,0E0,0E0,0E0,0E0,0E0,0E0,0E0],"parents":[2147483647,0,0,1,1,2,2,3,3,4,4,5,5,7,7,8,8,9,9,10,10,12,12],"right_children":[2,4,6,8,10,12,-1,14,16,18,20,-1,22,-1,-1,-1,-1,-1,-1,-1,-1,-1,-1],"split_conditions":[6.79E-2,-7.095E-1,8.25E0,-6.709E-1,1E1,-7.7E-1,3.942362E-2,5.905512E-2,7.75E0,4.4902913E-2,3.715847E-2,-8.175522E-2,5.4363377E-2,3.757101E-2,-1.3400368E-2,-7.4192435E-2,2.0712232E-2,-4.7339704E-2,3.3714894E-2,-1.4885838E-2,3.1721137E-2,-2.9071776E-2,2.374832E-2],"split_indices":[19,19,12,18,4,13,0,32,16,26,28,0,28,0,0,0,0,0,0,0,0,0,0],"split_type":[0,0,0,0,0,0,0,0,0,0,0,0,0,0,0,0,0,0,0,0,0,0,0],"sum_hessian":[8.004537E1,6.0721485E1,1.9323889E1,2.3787683E1,3.6933804E1,1.6982471E1,2.3414164E0,1.5932845E1,7.8548374E0,6.002524E0,3.093128E1,2.6670976E0,1.4315374E1,9.471755E0,6.46109E0,5.888799E0,1.9660383E0,3.0345125E0,2.9680116E0,1.7857406E0,2.9145538E1,9.213272E0,5.1021023E0],"tree_param":{"num_deleted":"0","num_feature":"44","num_nodes":"23","size_leaf_vector":"1"}},{"base_weights":[1.01874895E-1,-2.1040281E-3,8.834558E-1,-1.5350054E-1,4.340956E-1,3.893501E-3,4.8526E-2,-7.134227E-2,-1.3518703E0,-3.634736E-2,6.031117E-1,-2.0202104E-2,1.6549526E-2,-9.5557034E-2,-9.2547005E-3,3.888429E-2,-4.2310134E-2],"categories":[],"categories_nodes":[],"categories_segments":[],"categories_sizes":[],"default_left":[0,0,0,0,0,0,0,0,0,0,0,0,0,0,0,0,0],"id":34,"left_children":[1,3,5,7,9,-1,-1,11,13,-1,15,-1,-1,-1,-1,-1,-1],"loss_changes":[6.5990343E0,4.863985E0,5.9311676E-1,5.285732E0,4.162631E0,0E0,0E0,7.122919E0,1.8985968E0,0E0,4.9879336E0,0E0,0E0,0E0,0E0,0E0,0E0],"parents":[2147483647,0,0,1,1,2,2,3,3,4,4,7,7,8,8,10,10],"right_children":[2,4,6,8,10,-1,-1,12,14,-1,16,-1,-1,-1,-1,-1,-1],"split_conditions":[9.75E0,5.79E0,5.4E1,4.96E0,6.1919503E-3,3.893501E-3,4.8526E-2,5.2E-1,1.74E-1,-3.634736E-2,7.176471E-2,-2.0202104E-2,1.6549526E-2,-9.5557034E-2,-9.2547005E-3,3.888429E-2,-4.2310134E-2],"split_indices":[12,15,4,15,24,0,0,1,9,0,29,0,0,0,0,0,0],"split_type":[0,0,0,0,0,0,0,0,0,0,0,0,0,0,0,0,0],"sum_hessian":[8.0178085E1,7.1644104E1,8.533985E0,5.366582E1,1.797828E1,1.0171273E0,7.5168576E0,5.121419E1,2.4516287E0,1.865096E0,1.6113184E1,2.8030647E1,2.3183544E1,1.2260026E0,1.2256261E0,1.4794549E1,1.3186344E0],"tree_param":{"num_deleted":"0","num_feature":"44","num_nodes":"17","size_leaf_vector":"1"}},{"base_weights":[1.7975429E-1,-4.601832E-1,2.814998E-1,-1.0782589E0,3.459563E-1,6.702812E-1,9.525778E-2,-1.22128636E-1,-9.45842E-2,-2.8143153E-2,7.028555E-1,9.841567E-1,1.8212922E-1,-5.4103893E-1,3.4804383E-1,-5.0491005E-2,2.859432E-2,5.8493135E-3,4.175438E-2,5.2081194E-2,7.2205537E-3,2.7779737E-2,-5.856766E-2,-4.472334E-2,3.9654296E-2,-3.3090517E-3,3.1918924E-2],"categories":[],"categories_nodes":[],"categories_segments":[],"categories_sizes":[],"default_left":[0,1,0,0,0,0,0,0,0,0,1,0,0,0,0,0,0,0,0,0,0,0,0,0,0,0,0],"id":35,"left_children":[1,3,5,7,9,11,13,15,-1,-1,17,19,21,23,25,-1,-1,-1,-1,-1,-1,-1,-1,-1,-1,-1,-1],"loss_changes":[5.521308E0,6.2222786E0,5.154531E0,5.1258297E0,2.2936625E0,3.3718662E0,8.213439E0,3.1866553E0,0E0,0E0,2.622664E-1,5.1936436E-1,5.855891E0,7.582761E0,4.4097285E0,0E0,0E0,0E0,0E0,0E0,0E0,0E0,0E0,0E0,0E0,0E0,0E0],"parents":[2147483647,0,0,1,1,2,2,3,3,4,4,5,5,6,6,7,7,10,10,11,11,12,12,13,13,14,14],"right_children":[2,4,6,8,10,12,14,16,-1,-1,18,20,22,24,26,-1,-1,-1,-1,-1,-1,-1,-1,-1,-1,-1,-1],"split_conditions":[4.68E2,5E-2,-3.49E0,4.821803E-2,9.803922E-3,5.2700922E-2,1.3392857E-2,-1.724E1,-9.45842E-2,-2.8143153E-2,5.0541516E-2,1.99E3,7.1E-3,1.06E0,2.6E0,-5.0491005E-2,2.859432E-2,5.8493135E-3,4.175438E-2,5.2081194E-2,7.2205537E-3,2.7779737E-2,-5.856766E-2,-4.472334E-2,3.9654296E-2,-3.3090517E-3,3.1918924E-2],"split_indices":[14,27,15,28,34,37,24,16,0,0,43,2,18,1,15,0,0,0,0,0,0,0,0,0,0,0,0],"split_type":[0,0,0,0,0,0,0,0,0,0,0,0,0,0,0,0,0,0,0,0,0,0,0,0,0,0,0],"sum_hessian":[8.180914E1,1.073946E1,7.106969E1,5.887722E0,4.8517375E0,2.21767E1,4.8892982E1,3.2351484E0,2.6525738E0,1.2053372E0,3.6464005E0,1.2879353E1,9.297348E0,1.3577151E1,3.531583E1,1.2198448E0,2.0153036E0,1.0185043E0,2.627896E0,1.1829414E1,1.0499378E0,7.7487483E0,1.5485998E0,1.0994189E1,2.5829623E0,1.4871081E1,2.044475E1],"tree_param":{"num_deleted":"0","num_feature":"44","num_nodes":"27","size_leaf_vector":"1"}},{"base_weights":[1.9763852E-3,4.290781E-1,-1.9086471E-1,-8.983239E-2,9.4787526E-1,3.8035225E-2,-5.559672E-1,3.8577116E-1,-6.4149976E-1,8.836019E-3,5.0121017E-2,-8.104788E-1,2.6563063E-1,-1.0431417E0,1.15486436E-1,-3.3258423E-2,3.878122E-2,-4.9173955E-2,2.902068E-2,-6.9848806E-2,2.5441512E-2,-1.635167E-2,2.4479982E-2,-2.0266807E-2,-9.5835485E-2,2.4662295E-2,-4.366074E-2],"categories":[],"categories_nodes":[],"categories_segments":[],"categories_sizes":[],"default_left":[0,0,0,0,0,0,0,0,0,0,0,0,0,0,0,0,0,0,0,0,0,0,0,0,0,0,0],"id":36,"left_children":[1,3,5,7,9,11,13,15,17,-1,-1,19,21,23,25,-1,-1,-1,-1,-1,-1,-1,-1,-1,-1,-1,-1],"loss_changes":[6.6138535E0,6.809292E0,4.6451645E0,3.7634954E0,3.518591E-1,6.963662E0,7.11598E0,3.7202697E0,3.3203127E0,0E0,0E0,6.620511E0,3.9175153E0,6.183816E0,4.1254296E0,0E0,0E0,0E0,0E0,0E0,0E0,0E0,0E0,0E0,0E0,0E0,0E0],"parents":[2147483647,0,0,1,1,2,2,3,3,4,4,5,5,6,6,7,7,8,8,11,11,12,12,13,13,14,14],"right_children":[2,4,6,8,10,12,14,16,18,-1,-1,20,22,24,26,-1,-1,-1,-1,-1,-1,-1,-1,-1,-1,-1,-1],"split_conditions":[3.33E-1,5.4830287E-2,5.345912E-2,-4.71E-1,2.7972028E-2,4.4483986E-2,5.2E-2,3.6E1,-6.7E-2,8.836019E-3,5.0121017E-2,1.5167E2,4.7393367E-2,5.8020476E-2,1.102E-1,-3.3258423E-2,3.878122E-2,-4.9173955E-2,2.902068E-2,-6.9848806E-2,2.5441512E-2,-1.635167E-2,2.4479982E-2,-2.0266807E-2,-9.5835485E-2,2.4662295E-2,-4.366074E-2],"split_indices":[10,32,29,9,25,43,27,5,9,0,0,6,33,42,19,0,0,0,0,0,0,0,0,0,0,0,0],"split_type":[0,0,0,0,0,0,0,0,0,0,0,0,0,0,0,0,0,0,0,0,0,0,0,0,0,0,0],"sum_hessian":[7.8307175E1,2.397738E1,5.4329796E1,1.2400759E1,1.1576622E1,3.3944324E1,2.038547E1,6.820976E0,5.579783E0,1.0448256E0,1.0531796E1,6.6375117E0,2.7306812E1,1.1493083E1,8.892386E0,1.6545501E0,5.1664257E0,4.5121036E0,1.0676794E0,4.5541153E0,2.0833962E0,7.3629336E0,1.9943878E1,7.489143E0,4.00394E0,6.79666E0,2.0957265E0],"tree_param":{"num_deleted":"0","num_feature":"44","num_nodes":"27","size_leaf_vector":"1"}},{"base_weights":[3.9053377E-2,1.6702819E-1,-3.2142133E-1,-7.859062E-1,2.2545296E-1,2.030884E-1,-9.2402995E-1,6.7361817E-3,-7.7590376E-2,-5.193164E-2,2.732642E-1,-4.8805887E-1,5.23204E-1,-1.7723756E0,1.411323E-1,-1.8623488E-2,1.9423198E-2,2.1541785E-2,-6.4492546E-2,-3.36948E-2,3.7952367E-2,-1.2981971E-2,-1.1759917E-1,4.263065E-2,-4.9077272E-2],"categories":[],"categories_nodes":[],"categories_segments":[],"categories_sizes":[],"default_left":[0,0,0,0,0,0,0,0,0,0,0,0,0,0,0,0,0,0,0,0,0,0,0,0,0],"id":37,"left_children":[1,3,5,7,9,11,13,-1,-1,-1,15,17,19,21,23,-1,-1,-1,-1,-1,-1,-1,-1,-1,-1],"loss_changes":[3.7984245E0,3.549139E0,7.018012E0,2.8332605E0,3.7797272E0,2.9929514E0,9.500088E0,0E0,0E0,0E0,4.349641E0,3.8226724E0,3.035328E0,4.4501324E0,5.201758E0,0E0,0E0,0E0,0E0,0E0,0E0,0E0,0E0,0E0,0E0],"parents":[2147483647,0,0,1,1,2,2,3,3,4,4,5,5,6,6,10,10,11,11,12,12,13,13,14,14],"right_children":[2,4,6,8,10,12,14,-1,-1,-1,16,18,20,22,24,-1,-1,-1,-1,-1,-1,-1,-1,-1,-1],"split_conditions":[4.69E-1,2.5026068E-2,5.1420838E-2,3.1707317E-2,-7.898E-1,4.262295E-2,4.95283E-2,6.7361817E-3,-7.7590376E-2,-5.193164E-2,1.261E3,-9.3E-1,3.547067E-2,-3.69E0,2.970297E-2,-1.8623488E-2,1.9423198E-2,2.1541785E-2,-6.4492546E-2,-3.36948E-2,3.7952367E-2,-1.2981971E-2,-1.1759917E-1,4.263065E-2,-4.9077272E-2],"split_indices":[9,35,30,36,8,28,27,0,0,0,2,13,37,16,34,0,0,0,0,0,0,0,0,0,0],"split_type":[0,0,0,0,0,0,0,0,0,0,0,0,0,0,0,0,0,0,0,0,0,0,0,0,0],"sum_hessian":[8.0174965E1,5.9564995E1,2.060997E1,2.7216735E0,5.6843323E1,1.13734865E1,9.236483E0,1.6102346E0,1.1114389E0,1.3163596E0,5.5526962E1,3.4342084E0,7.939278E0,4.7719374E0,4.4645457E0,8.0682745E0,4.745869E1,1.8158318E0,1.6183765E0,1.0009977E0,6.9382806E0,1.7229954E0,3.0489419E0,2.8799644E0,1.5845814E0],"tree_param":{"num_deleted":"0","num_feature":"44","num_nodes":"25","size_leaf_vector":"1"}},{"base_weights":[7.592755E-2,1.773724E-1,-4.5679483E-1,2.610428E-1,-5.303636E-1,6.5785676E-1,-8.802846E-1,4.8132874E-2,5.952416E-1,1.9060247E-2,-8.496047E-1,4.012772E-2,4.8416066E-3,-1.5151149E0,4.3512464E-2,2.1447109E-2,-1.7109519E-2,3.589831E-2,-2.7904823E-2,-6.1027545E-2,1.6541986E-2,8.1627036E-4,-1.02770865E-1,-3.749634E-2,3.903534E-2],"categories":[],"categories_nodes":[],"categories_segments":[],"categories_sizes":[],"default_left":[1,0,0,0,0,0,0,0,0,0,0,0,0,0,0,0,0,0,0,0,0,0,0,0,0],"id":38,"left_children":[1,3,5,7,9,11,13,15,17,-1,19,-1,-1,21,23,-1,-1,-1,-1,-1,-1,-1,-1,-1,-1],"loss_changes":[4.4652E0,4.216603E0,6.8369656E0,4.4012423E0,2.5387158E0,2.650478E-1,5.9508076E0,5.9611917E0,3.817523E0,0E0,3.007679E0,0E0,0E0,4.9778967E0,3.544704E0,0E0,0E0,0E0,0E0,0E0,0E0,0E0,0E0,0E0,0E0],"parents":[2147483647,0,0,1,1,2,2,3,3,4,4,5,5,6,6,7,7,8,8,10,10,13,13,14,14],"right_children":[2,4,6,8,10,12,14,16,18,-1,20,-1,-1,22,24,-1,-1,-1,-1,-1,-1,-1,-1,-1,-1],"split_conditions":[7.440476E-2,3.061E-1,4.8449613E-2,4.911181E-2,3.8101606E-2,2.9220778E-2,1.5E1,-6.9E-1,1.407E1,1.9060247E-2,1.89E-1,4.012772E-2,4.8416066E-3,1.90814E1,8.490566E-2,2.1447109E-2,-1.7109519E-2,3.589831E-2,-2.7904823E-2,-6.1027545E-2,1.6541986E-2,8.1627036E-4,-1.02770865E-1,-3.749634E-2,3.903534E-2],"split_indices":[43,18,32,27,40,34,21,15,16,0,8,0,0,20,43,0,0,0,0,0,0,0,0,0,0],"split_type":[0,0,0,0,0,0,0,0,0,0,0,0,0,0,0,0,0,0,0,0,0,0,0,0,0],"sum_hessian":[8.012546E1,6.786849E1,1.2256965E1,6.1257614E1,6.610877E0,3.2222865E0,9.034678E0,3.811775E1,2.3139866E1,1.6643512E0,4.946526E0,2.219361E0,1.0029255E0,4.975462E0,4.0592165E0,1.9243935E1,1.8873814E1,2.1255587E1,1.8842798E0,3.737932E0,1.208594E0,1.5504968E0,3.4249651E0,1.9467094E0,2.1125069E0],"tree_param":{"num_deleted":"0","num_feature":"44","num_nodes":"25","size_leaf_vector":"1"}},{"base_weights":[1.1226775E-1,-4.492745E-1,2.2017092E-1,5.430464E-1,-8.2172936E-1,3.363457E-2,6.074546E-1,-4.096049E-3,3.903908E-2,-1.6379685E0,-2.1634625E-1,3.045773E-1,-3.4340283E-1,-2.4135945E-2,7.1461594E-1,-2.7788205E-2,-9.5012836E-2,3.0061487E-2,-4.5324948E-2,3.1011168E-2,-1.2147012E-2,1.0776335E-2,-4.0642377E-2,4.446085E-2,9.6597215E-3],"categories":[],"categories_nodes":[],"categories_segments":[],"categories_sizes":[],"default_left":[0,0,1,0,0,0,0,0,0,0,0,0,0,0,0,0,0,0,0,0,0,0,0,0,0],"id":39,"left_children":[1,3,5,7,9,11,13,-1,-1,15,17,19,21,-1,23,-1,-1,-1,-1,-1,-1,-1,-1,-1,-1],"loss_changes":[4.7116966E0,5.102933E0,4.64129E0,6.642958E-1,4.3690443E0,4.6618047E0,2.7887273E0,0E0,0E0,5.613327E-2,4.291946E0,4.728257E0,5.192868E0,0E0,1.5988836E0,0E0,0E0,0E0,0E0,0E0,0E0,0E0,0E0,0E0,0E0],"parents":[2147483647,0,0,1,1,2,2,3,3,4,4,5,5,6,6,9,9,10,10,11,11,12,12,14,14],"right_children":[2,4,6,8,10,12,14,-1,-1,16,18,20,22,-1,24,-1,-1,-1,-1,-1,-1,-1,-1,-1,-1],"split_conditions":[5.03E2,4.1830067E-2,2.46079E1,4.6803653E-2,5.0473187E-2,4.950495E-2,4.0899795E-2,-4.096049E-3,3.903908E-2,-7.4E-1,5.18018E-2,6.0115606E-2,7.1E-2,-2.4135945E-2,3.87E-1,-2.7788205E-2,-9.5012836E-2,3.0061487E-2,-4.5324948E-2,3.1011168E-2,-1.2147012E-2,1.0776335E-2,-4.0642377E-2,4.446085E-2,9.6597215E-3],"split_indices":[14,29,20,40,33,37,43,0,0,1,28,33,9,0,9,0,0,0,0,0,0,0,0,0,0],"split_type":[0,0,0,0,0,0,0,0,0,0,0,0,0,0,0,0,0,0,0,0,0,0,0,0,0],"sum_hessian":[7.512828E1,1.1599464E1,6.3528812E1,3.040562E0,8.558903E0,4.3610523E1,1.9918293E1,1.0185001E0,2.0220618E0,2.918377E0,5.6405253E0,2.5487291E1,1.812323E1,1.4690244E0,1.8449268E1,1.1777736E0,1.7406034E0,2.6408908E0,2.9996347E0,1.6082737E1,9.404555E0,8.520023E0,9.603207E0,1.3292745E1,5.156524E0],"tree_param":{"num_deleted":"0","num_feature":"44","num_nodes":"25","size_leaf_vector":"1"}},{"base_weights":[4.4601977E-2,4.5590192E-1,-9.993398E-2,6.855354E-1,-6.6331804E-1,-2.0992602E-1,5.4762274E-1,-2.013764E-2,8.054419E-1,-7.0159875E-2,1.7077114E-2,-8.880981E-2,-1.1938139E0,7.9639864E-1,-1.463981E-1,4.5066293E-2,-1.28924865E-2,3.736755E-2,-9.740339E-3,-9.612154E-2,-9.843136E-3,4.5462042E-2,3.6332135E-3,-4.475837E-2,3.0523075E-2],"categories":[],"categories_nodes":[],"categories_segments":[],"categories_sizes":[],"default_left":[0,1,0,0,0,0,0,0,0,0,0,0,0,0,0,0,0,0,0,0,0,0,0,0,0],"id":40,"left_children":[1,3,5,7,9,11,13,-1,15,-1,-1,17,19,21,23,-1,-1,-1,-1,-1,-1,-1,-1,-1,-1],"loss_changes":[4.8291035E0,5.8786173E0,4.4143615E0,2.673627E0,3.5282555E0,6.1288295E0,1.6776502E0,0E0,1.9196653E0,0E0,0E0,4.3703265E0,3.7288828E0,4.9016714E-1,2.3772264E0,0E0,0E0,0E0,0E0,0E0,0E0,0E0,0E0,0E0,0E0],"parents":[2147483647,0,0,1,1,2,2,3,3,4,4,5,5,6,6,8,8,11,11,12,12,13,13,14,14],"right_children":[2,4,6,8,10,12,14,-1,16,-1,-1,18,20,22,24,-1,-1,-1,-1,-1,-1,-1,-1,-1,-1],"split_conditions":[-7.69E-1,7.090464E-2,8.5E0,3.3846155E-2,5.1369864E-2,8.9E-1,1.991E3,-2.013764E-2,3.005E2,-7.0159875E-2,1.7077114E-2,-9.924E-1,4.0433925E-2,6.1488673E-2,2.81E-1,4.5066293E-2,-1.28924865E-2,3.736755E-2,-9.740339E-3,-9.612154E-2,-9.843136E-3,4.5462042E-2,3.6332135E-3,-4.475837E-2,3.0523075E-2],"split_indices":[11,43,12,27,38,13,2,0,6,0,0,18,25,32,9,0,0,0,0,0,0,0,0,0,0],"split_type":[0,0,0,0,0,0,0,0,0,0,0,0,0,0,0,0,0,0,0,0,0,0,0,0,0],"sum_hessian":[7.94665E1,2.0103777E1,5.9362724E1,1.7002762E1,3.1010153E0,5.1321266E1,8.041458E0,1.453322E0,1.5549439E1,1.5576823E0,1.543333E0,4.666686E1,4.6544085E0,5.8109684E0,2.23049E0,1.4402955E1,1.146484E0,4.5695014E0,4.2097355E1,2.1527622E0,2.501646E0,4.805407E0,1.0055614E0,1.0293771E0,1.2011129E0],"tree_param":{"num_deleted":"0","num_feature":"44","num_nodes":"25","size_leaf_vector":"1"}},{"base_weights":[2.833747E-2,-7.207997E-1,1.177111E-1,2.1563204E-2,-1.0918902E0,7.2618854E-1,-4.4743553E-2,-1.3764102E0,1.007101E-2,-2.1396212E-2,8.9714694E-1,1.6848333E-1,-5.307769E-1,-8.415912E-2,-4.1998373E-3,-1.4951839E-2,5.145782E-2,-1.669593E-2,1.8894447E-2,-4.0624887E-2,4.0637515E-2],"categories":[],"categories_nodes":[],"categories_segments":[],"categories_sizes":[],"default_left":[0,0,0,0,0,0,0,0,0,0,0,0,0,0,0,0,0,0,0,0,0],"id":41,"left_children":[1,3,5,-1,7,9,11,13,-1,-1,15,17,19,-1,-1,-1,-1,-1,-1,-1,-1],"loss_changes":[5.062923E0,3.9189448E0,6.683758E0,0E0,2.6261616E0,3.1929407E0,5.690865E0,1.9837303E0,0E0,0E0,2.3168259E0,4.1584177E0,6.989765E0,0E0,0E0,0E0,0E0,0E0,0E0,0E0,0E0],"parents":[2147483647,0,0,1,1,2,2,4,4,5,5,6,6,7,7,10,10,11,11,12,12],"right_children":[2,4,6,-1,8,10,12,14,-1,-1,16,18,20,-1,-1,-1,-1,-1,-1,-1,-1],"split_conditions":[3.547067E-2,3.33E-1,4.2431194E-2,2.1563204E-2,7.575758E-2,4.1009463E-2,5.042017E-2,1.859E-1,1.007101E-2,-2.1396212E-2,-1.076E1,1.684E3,3.9534885E-2,-8.415912E-2,-4.1998373E-3,-1.4951839E-2,5.145782E-2,-1.669593E-2,1.8894447E-2,-4.0624887E-2,4.0637515E-2],"split_indices":[37,10,37,0,32,32,26,19,0,0,16,2,24,0,0,0,0,0,0,0,0],"split_type":[0,0,0,0,0,0,0,0,0,0,0,0,0,0,0,0,0,0,0,0,0],"sum_hessian":[7.335169E1,7.0652413E0,6.628645E1,1.6818196E0,5.383422E0,1.3236975E1,5.3049477E1,4.359997E0,1.023425E0,1.5138855E0,1.1723089E1,3.7327114E1,1.5722365E1,3.279263E0,1.0807338E0,1.0394045E0,1.0683684E1,1.0806282E1,2.652083E1,1.3323785E1,2.3985803E0],"tree_param":{"num_deleted":"0","num_feature":"44","num_nodes":"21","size_leaf_vector":"1"}},{"base_weights":[1.0061564E-1,2.2870298E-1,-2.4912344E-1,5.447773E-1,9.472395E-3,-5.4332864E-2,-7.759617E-2,6.714979E-1,-5.738644E-2,-9.02852E-1,1.5752348E-1,2.9449886E-1,-5.7493997E-1,4.066413E-2,-2.5843669E-2,1.0130203E-2,-9.412448E-2,3.1613637E-2,-1.3908445E-2,-4.9737427E-2,3.196266E-2,-5.285066E-2,4.7182795E-4],"categories":[],"categories_nodes":[],"categories_segments":[],"categories_sizes":[],"default_left":[1,0,0,1,0,0,0,0,0,0,0,0,0,0,0,0,0,0,0,0,0,0,0],"id":42,"left_children":[1,3,5,7,9,11,-1,13,-1,15,17,19,21,-1,-1,-1,-1,-1,-1,-1,-1,-1,-1],"loss_changes":[3.5697625E0,4.0080605E0,5.3715143E0,5.854118E0,4.8987207E0,3.7539701E0,0E0,4.2420473E0,0E0,5.866858E0,6.6190057E0,6.1831846E0,2.3364172E0,0E0,0E0,0E0,0E0,0E0,0E0,0E0,0E0,0E0,0E0],"parents":[2147483647,0,0,1,1,2,2,3,3,4,4,5,5,7,7,9,9,10,10,11,11,12,12],"right_children":[2,4,6,8,10,12,-1,14,-1,16,18,20,22,-1,-1,-1,-1,-1,-1,-1,-1,-1,-1],"split_conditions":[1.252E-1,4.67E-1,6.1488673E-2,3.33029E1,5.6E-1,5.3285968E-2,-7.759617E-2,7.24234E-2,-5.738644E-2,-4.3E-2,5.4151624E-2,-7.9E-1,4.3704476E-2,4.066413E-2,-2.5843669E-2,1.0130203E-2,-9.412448E-2,3.1613637E-2,-1.3908445E-2,-4.9737427E-2,3.196266E-2,-5.285066E-2,4.7182795E-4],"split_indices":[18,10,37,20,10,29,0,28,0,9,43,13,26,0,0,0,0,0,0,0,0,0,0],"split_type":[0,0,0,0,0,0,0,0,0,0,0,0,0,0,0,0,0,0,0,0,0,0,0],"sum_hessian":[7.741543E1,5.691656E1,2.0498865E1,2.270165E1,3.4214912E1,1.8738804E1,1.7600626E0,2.168157E1,1.0200808E0,4.065309E0,3.0149603E1,1.148058E1,7.258223E0,1.9652464E1,2.0291045E0,2.2826614E0,1.7826476E0,1.42121935E1,1.5937409E1,2.0244687E0,9.456112E0,3.534061E0,3.7241619E0],"tree_param":{"num_deleted":"0","num_feature":"44","num_nodes":"23","size_leaf_vector":"1"}},{"base_weights":[-8.044172E-3,-8.6303216E-1,4.60997E-2,-6.0720142E-2,7.090207E-3,1.6865352E-1,-4.0082303E-1,3.9467478E-1,-1.8557546E-1,4.9525723E-1,-7.302482E-1,2.98273E-2,-1.8747395E-2,8.477665E-3,-4.034143E-2,-2.0159945E-2,4.1910864E-2,1.2782017E-2,-5.830718E-2],"categories":[],"categories_nodes":[],"categories_segments":[],"categories_sizes":[],"default_left":[0,0,0,0,0,0,0,0,0,0,0,0,0,0,0,0,0,0,0],"id":43,"left_children":[1,3,5,-1,-1,7,9,11,13,15,17,-1,-1,-1,-1,-1,-1,-1,-1],"loss_changes":[3.5542414E0,1.786475E0,4.0301747E0,0E0,0E0,4.6753716E0,5.0450077E0,5.725246E0,5.226717E0,1.8356967E0,5.4571195E0,0E0,0E0,0E0,0E0,0E0,0E0,0E0,0E0],"parents":[2147483647,0,0,1,1,2,2,5,5,6,6,7,7,8,8,9,9,10,10],"right_children":[2,4,6,-1,-1,8,10,12,14,16,18,-1,-1,-1,-1,-1,-1,-1,-1],"split_conditions":[2.5026068E-2,2.33929E1,4.8933502E-2,-6.0720142E-2,7.090207E-3,5.30504E-2,-1.5E0,6.390978E-2,6.167401E-2,4.7945205E-2,-2.93E0,2.98273E-2,-1.8747395E-2,8.477665E-3,-4.034143E-2,-2.0159945E-2,4.1910864E-2,1.2782017E-2,-5.830718E-2],"split_indices":[35,20,35,0,0,28,0,41,43,28,17,0,0,0,0,0,0,0,0],"split_type":[0,0,0,0,0,0,0,0,0,0,0,0,0,0,0,0,0,0,0],"sum_hessian":[7.49187E1,3.5720894E0,7.134661E1,2.4920967E0,1.079993E0,5.6481155E1,1.4865459E1,3.4410698E1,2.2070457E1,3.860631E0,1.1004828E1,2.7438494E1,6.972203E0,1.4505636E1,7.564821E0,1.0180336E0,2.8425975E0,3.5006788E0,7.5041494E0],"tree_param":{"num_deleted":"0","num_feature":"44","num_nodes":"19","size_leaf_vector":"1"}},{"base_weights":[1.8523676E-2,1.10280484E-1,-4.7923306E-1,-6.7572943E-3,5.750938E-1,-1.1179725E0,2.6127863E-1,2.986195E-1,-2.4061015E-1,-3.341237E-1,7.9606724E-1,-1.408568E0,9.213741E-3,-2.7131766E-2,7.0953864E-1,2.763114E-2,-1.8982073E-2,-4.030572E-3,-6.469074E-2,-4.7646843E-2,2.7253134E-2,4.6614714E-2,-9.528972E-3,-9.586104E-2,-2.3936817E-2,4.059541E-2,9.332224E-3],"categories":[],"categories_nodes":[],"categories_segments":[],"categories_sizes":[],"default_left":[0,0,0,0,0,0,0,0,0,0,0,0,0,0,0,0,0,0,0,0,0,0,0,0,0,0,0],"id":44,"left_children":[1,3,5,7,9,11,13,15,17,19,21,23,-1,-1,25,-1,-1,-1,-1,-1,-1,-1,-1,-1,-1,-1,-1],"loss_changes":[3.591373E0,3.6068363E0,6.0844183E0,3.9207578E0,2.9448705E0,2.8193493E0,2.720815E0,4.313505E0,5.1324224E0,2.3209445E0,1.6591525E0,1.75245E0,0E0,0E0,9.441209E-2,0E0,0E0,0E0,0E0,0E0,0E0,0E0,0E0,0E0,0E0,0E0,0E0],"parents":[2147483647,0,0,1,1,2,2,3,3,4,4,5,5,6,6,7,7,8,8,9,9,10,10,11,11,14,14],"right_children":[2,4,6,8,10,12,14,16,18,20,22,24,-1,-1,26,-1,-1,-1,-1,-1,-1,-1,-1,-1,-1,-1,-1],"split_conditions":[5.19E0,6.4665124E-2,9.767E1,-2.2E-1,-4.94E0,8.292683E-2,-9.3E-1,5.66E-2,1.342E1,2.5E1,7.8947365E-2,4.8780486E-2,9.213741E-3,-2.7131766E-2,3.5897437E-2,2.763114E-2,-1.8982073E-2,-4.030572E-3,-6.469074E-2,-4.7646843E-2,2.7253134E-2,4.6614714E-2,-9.528972E-3,-9.586104E-2,-2.3936817E-2,4.059541E-2,9.332224E-3],"split_indices":[17,30,6,13,17,32,13,18,16,4,32,27,0,0,24,0,0,0,0,0,0,0,0,0,0,0,0],"split_type":[0,0,0,0,0,0,0,0,0,0,0,0,0,0,0,0,0,0,0,0,0,0,0,0,0,0,0],"sum_hessian":[7.647589E1,6.522983E1,1.1246065E1,5.2896263E1,1.2333565E1,5.7642746E0,5.4817905E0,2.2819916E1,3.0076347E1,2.3113265E0,1.0022239E1,4.6459007E0,1.1183735E0,1.8870317E0,3.5947587E0,1.6737204E1,6.082712E0,2.7044405E1,3.0319414E0,1.307301E0,1.0040255E0,8.854746E0,1.1674927E0,2.316686E0,2.329215E0,2.5439894E0,1.0507692E0],"tree_param":{"num_deleted":"0","num_feature":"44","num_nodes":"27","size_leaf_vector":"1"}},{"base_weights":[7.8782775E-2,-6.0821682E-2,3.9837384E-1,1.0304992E-1,-8.516962E-1,-5.375093E-1,5.25684E-1,2.67262E-1,-6.648068E-1,-9.177712E-2,-1.5486737E0,1.3046828E-2,-5.622464E-2,6.2316823E-1,-2.963061E-2,2.777212E-2,-2.0387245E-3,-5.15123E-2,3.2420497E-2,-6.3899346E-2,2.3580743E-2,-7.111706E-3,-9.941111E-2,-1.6489558E-2,3.6637943E-2],"categories":[],"categories_nodes":[],"categories_segments":[],"categories_sizes":[],"default_left":[0,0,0,0,0,0,0,0,0,0,0,0,0,0,0,0,0,0,0,0,0,0,0,0,0],"id":45,"left_children":[1,3,5,7,9,11,13,15,17,19,21,-1,-1,23,-1,-1,-1,-1,-1,-1,-1,-1,-1,-1,-1],"loss_changes":[3.449462E0,7.1249576E0,3.0792227E0,5.9615955E0,4.8512015E0,1.8424301E0,2.676865E0,3.4405239E0,4.6839657E0,4.3272815E0,2.7182436E0,0E0,0E0,2.3259177E0,0E0,0E0,0E0,0E0,0E0,0E0,0E0,0E0,0E0,0E0,0E0],"parents":[2147483647,0,0,1,1,2,2,3,3,4,4,5,5,6,6,7,7,8,8,9,9,10,10,13,13],"right_children":[2,4,6,8,10,12,14,16,18,20,22,-1,-1,24,-1,-1,-1,-1,-1,-1,-1,-1,-1,-1,-1],"split_conditions":[6.0390763E-2,5.5908512E-2,-1.57E0,5.65E0,4.5627378E-2,1E-2,3.005E2,5.2820053E-2,1.6133E2,4.9079753E-2,4.489796E-2,1.3046828E-2,-5.622464E-2,4.2895444E-2,-2.963061E-2,2.777212E-2,-2.0387245E-3,-5.15123E-2,3.2420497E-2,-6.3899346E-2,2.3580743E-2,-7.111706E-3,-9.941111E-2,-1.6489558E-2,3.6637943E-2],"split_indices":[42,42,1,17,26,17,6,30,6,33,28,0,0,31,0,0,0,0,0,0,0,0,0,0,0],"split_type":[0,0,0,0,0,0,0,0,0,0,0,0,0,0,0,0,0,0,0,0,0,0,0,0,0],"sum_hessian":[7.5770805E1,5.329852E1,2.2472282E1,4.4870846E1,8.427673E0,2.3050852E0,2.0167198E1,3.7502567E1,7.368277E0,4.5731826E0,3.8544915E0,1.2119663E0,1.0931188E0,1.8957394E1,1.2098038E0,1.8960808E1,1.854176E1,5.932791E0,1.4354858E0,1.0641845E0,3.5089977E0,1.2329538E0,2.6215377E0,1.7480143E0,1.720938E1],"tree_param":{"num_deleted":"0","num_feature":"44","num_nodes":"25","size_leaf_vector":"1"}},{"base_weights":[9.9819876E-2,4.4822434E-1,-4.569993E-2,-4.6777215E-2,6.0763127E-1,3.7189788E-1,-2.5759536E-1,8.0146664E-1,-1.2582554E-1,-2.0597765E-1,8.237503E-1,-8.577603E-1,-2.1479744E-2,-2.138795E-3,4.7436554E-2,-5.3173196E-2,1.9079741E-2,1.9622343E-2,-5.178965E-2,-1.067933E-2,4.794602E-2,-5.6961566E-2,2.2769189E-2,6.77522E-3,-6.1308082E-2],"categories":[],"categories_nodes":[],"categories_segments":[],"categories_sizes":[],"default_left":[0,0,0,0,0,0,0,0,0,0,0,0,0,0,0,0,0,0,0,0,0,0,0,0,0],"id":46,"left_children":[1,3,5,-1,7,9,11,13,15,17,19,21,23,-1,-1,-1,-1,-1,-1,-1,-1,-1,-1,-1,-1],"loss_changes":[3.8839784E0,5.541176E0,4.932491E0,0E0,3.060977E0,5.080825E0,5.2037334E0,2.104967E0,2.887759E0,4.9021707E0,1.7128692E0,4.3549767E0,5.361636E0,0E0,0E0,0E0,0E0,0E0,0E0,0E0,0E0,0E0,0E0,0E0,0E0],"parents":[2147483647,0,0,1,1,2,2,4,4,5,5,6,6,7,7,8,8,9,9,10,10,11,11,12,12],"right_children":[2,4,6,-1,8,10,12,14,16,18,20,22,24,-1,-1,-1,-1,-1,-1,-1,-1,-1,-1,-1,-1],"split_conditions":[3.33E-1,4.0816326E-2,4.255319E-2,-4.6777215E-2,7.995619E-2,4.8611112E-2,4.7013976E-2,4.53E2,-2.73E0,7E-2,-1.866E1,1.423E-1,2.012E-1,-2.138795E-3,4.7436554E-2,-5.3173196E-2,1.9079741E-2,1.9622343E-2,-5.178965E-2,-1.067933E-2,4.794602E-2,-5.6961566E-2,2.2769189E-2,6.77522E-3,-6.1308082E-2],"split_indices":[10,39,27,0,33,40,29,14,17,13,15,19,19,0,0,0,0,0,0,0,0,0,0,0,0],"split_type":[0,0,0,0,0,0,0,0,0,0,0,0,0,0,0,0,0,0,0,0,0,0,0,0,0],"sum_hessian":[7.520343E1,2.1543554E1,5.3659878E1,1.7224578E0,1.9821096E1,1.780842E1,3.5851456E1,1.5604476E1,4.21662E0,8.0532465E0,9.755174E0,9.3789625E0,2.6472494E1,2.4230516E0,1.3181424E1,1.0958415E0,3.1207786E0,4.98521E0,3.068036E0,1.0577263E0,8.697448E0,7.8325114E0,1.5464507E0,2.4205725E1,2.2667704E0],"tree_param":{"num_deleted":"0","num_feature":"44","num_nodes":"25","size_leaf_vector":"1"}},{"base_weights":[6.019144E-2,1.6956262E-1,-3.319216E-1,3.0345054E-2,8.275116E-1,-7.24808E-1,3.5755333E-1,-1.1926071E-1,6.6164505E-1,4.8594143E-2,-4.8152804E-3,-1.1106827E0,4.0105578E-1,-3.9641537E-2,7.763895E-1,-1.6872238E-2,2.5203979E-2,2.7657698E-3,4.791526E-2,1.455596E-2,-8.375763E-2,3.5153355E-2,-9.582175E-3,4.4733666E-2,6.4929314E-3],"categories":[],"categories_nodes":[],"categories_segments":[],"categories_sizes":[],"default_left":[0,0,0,0,1,0,0,0,0,0,0,0,0,0,0,0,0,0,0,0,0,0,0,0,0],"id":47,"left_children":[1,3,5,7,9,11,13,15,17,-1,-1,19,21,-1,23,-1,-1,-1,-1,-1,-1,-1,-1,-1,-1],"loss_changes":[3.4187715E0,5.650998E0,4.982849E0,5.0074463E0,1.5318866E0,5.41482E0,3.9880447E0,6.022787E0,1.7727175E0,0E0,0E0,7.438305E0,7.8888506E-1,0E0,3.1486535E-1,0E0,0E0,0E0,0E0,0E0,0E0,0E0,0E0,0E0,0E0],"parents":[2147483647,0,0,1,1,2,2,3,3,4,4,5,5,6,6,7,7,8,8,11,11,12,12,14,14],"right_children":[2,4,6,8,10,12,14,16,18,-1,-1,20,22,-1,24,-1,-1,-1,-1,-1,-1,-1,-1,-1,-1],"split_conditions":[3.68E0,1.11E0,5.862069E-2,6.25E-2,5.1886793E-2,7.14E-1,-1.197E1,8.9E-1,5.2434456E-2,4.8594143E-2,-4.8152804E-3,2.3E-2,4.931193E-2,-3.9641537E-2,1.75E0,-1.6872238E-2,2.5203979E-2,2.7657698E-3,4.791526E-2,1.455596E-2,-8.375763E-2,3.5153355E-2,-9.582175E-3,4.4733666E-2,6.4929314E-3],"split_indices":[17,1,43,38,25,10,16,17,40,0,0,10,26,0,0,0,0,0,0,0,0,0,0,0,0],"split_type":[0,0,0,0,0,0,0,0,0,0,0,0,0,0,0,0,0,0,0,0,0,0,0,0,0],"sum_hessian":[7.740555E1,6.096757E1,1.6437977E1,5.118359E1,9.783982E0,1.0438511E1,5.9994655E0,4.2033546E1,9.150042E0,8.416628E0,1.3673542E0,7.784099E0,2.6544118E0,1.3629689E0,4.6364965E0,3.1475143E1,1.0558403E1,3.3958616E0,5.7541804E0,2.3736494E0,5.4104495E0,1.6350539E0,1.0193579E0,3.594983E0,1.0415136E0],"tree_param":{"num_deleted":"0","num_feature":"44","num_nodes":"25","size_leaf_vector":"1"}},{"base_weights":[1.0356862E-1,2.0901524E-2,5.385508E-1,5.470827E-1,-1.009532E-1,7.2215235E-1,-1.8511211E-2,8.180023E-1,-8.0122255E-2,-9.657932E-1,-5.504184E-3,8.6989087E-1,-1.5594541E-2,1.4707145E-2,4.8206616E-2,3.8754087E-2,-5.9978146E-2,3.0263668E-2,-7.447646E-2,-1.885754E-2,9.2213545E-3,3.6462937E-3,4.7811527E-2],"categories":[],"categories_nodes":[],"categories_segments":[],"categories_sizes":[],"default_left":[0,0,0,0,1,0,0,0,0,0,0,0,0,0,0,0,0,0,0,0,0,0,0],"id":48,"left_children":[1,3,5,7,9,11,-1,13,15,17,19,21,-1,-1,-1,-1,-1,-1,-1,-1,-1,-1,-1],"loss_changes":[2.7623005E0,4.2776585E0,2.3158617E0,2.1961665E0,4.47833E0,1.8834305E0,0E0,3.9355993E-1,5.4227324E0,5.3390803E0,3.5934527E0,5.8378077E-1,0E0,0E0,0E0,0E0,0E0,0E0,0E0,0E0,0E0,0E0,0E0],"parents":[2147483647,0,0,1,1,2,2,3,3,4,4,5,5,7,7,8,8,9,9,10,10,11,11],"right_children":[2,4,6,8,10,12,-1,14,16,18,20,22,-1,-1,-1,-1,-1,-1,-1,-1,-1,-1,-1],"split_conditions":[8.5E0,1.85707E1,6.779661E-2,5.978261E-2,1.92321E1,7.749078E-2,-1.8511211E-2,1.691E1,5E1,3.3210333E-2,4.1136142E-2,3.9E1,-1.5594541E-2,1.4707145E-2,4.8206616E-2,3.8754087E-2,-5.9978146E-2,3.0263668E-2,-7.447646E-2,-1.885754E-2,9.2213545E-3,3.6462937E-3,4.7811527E-2],"split_indices":[12,20,40,41,20,43,0,20,6,35,36,4,0,0,0,0,0,0,0,0,0,0,0],"split_type":[0,0,0,0,0,0,0,0,0,0,0,0,0,0,0,0,0,0,0,0,0,0,0],"sum_hessian":[7.6131714E1,6.485438E1,1.1277334E1,1.1538842E1,5.3315536E1,9.552733E0,1.7246008E0,7.845707E0,3.693135E0,4.393022E0,4.8922512E1,8.4974165E0,1.0553167E0,2.3683455E0,5.477361E0,2.268056E0,1.4250791E0,1.0594059E0,3.3336163E0,1.6212704E1,3.270981E1,1.0108966E0,7.48652E0],"tree_param":{"num_deleted":"0","num_feature":"44","num_nodes":"23","size_leaf_vector":"1"}},{"base_weights":[-8.350799E-3,2.0800391E-1,-1.8223424E-1,-5.078277E-2,2.8296125E-1,1.7054075E-1,-6.1722094E-1,3.9635143E-1,-5.7939696E-1,-7.79438E-1,3.833521E-1,2.9378855E-1,-8.4405166E-1,2.3841098E-2,-2.3610251E-2,-6.083696E-2,1.0450154E-2,3.1664412E-2,-7.049457E-2,4.1619297E-2,-1.6650172E-2,3.8775045E-2,-2.841264E-2,-2.2087995E-2,-8.175903E-2],"categories":[],"categories_nodes":[],"categories_segments":[],"categories_sizes":[],"default_left":[1,0,0,0,0,0,0,0,0,0,0,0,0,0,0,0,0,0,0,0,0,0,0,0,0],"id":49,"left_children":[1,3,5,-1,7,9,11,13,15,17,19,21,23,-1,-1,-1,-1,-1,-1,-1,-1,-1,-1,-1,-1],"loss_changes":[2.931612E0,3.4738655E0,6.7310085E0,0E0,3.5070682E0,5.277242E0,4.288372E0,2.3370605E0,2.4155712E0,5.200612E0,6.9643097E0,2.3673046E0,4.3421135E0,0E0,0E0,0E0,0E0,0E0,0E0,0E0,0E0,0E0,0E0,0E0,0E0],"parents":[2147483647,0,0,1,1,2,2,4,4,5,5,6,6,7,7,8,8,9,9,10,10,11,11,12,12],"right_children":[2,4,6,-1,8,10,12,14,16,18,20,22,24,-1,-1,-1,-1,-1,-1,-1,-1,-1,-1,-1,-1],"split_conditions":[4.9411766E-2,1.5862068E-2,2.7E-1,-5.078277E-2,1.9E1,4.3179587E-2,-7.31E-1,3.12E2,-1.09E0,5.1369864E-2,5.8641974E-2,5.6140352E-2,3.02E0,2.3841098E-2,-2.3610251E-2,-6.083696E-2,1.0450154E-2,3.1664412E-2,-7.049457E-2,4.1619297E-2,-1.6650172E-2,3.8775045E-2,-2.841264E-2,-2.2087995E-2,-8.175903E-2],"split_indices":[38,30,15,0,21,31,11,6,15,42,32,42,17,0,0,0,0,0,0,0,0,0,0,0,0],"split_type":[0,0,0,0,0,0,0,0,0,0,0,0,0,0,0,0,0,0,0,0,0,0,0,0,0],"sum_hessian":[7.5918335E1,3.374048E1,4.217786E1,1.2231462E0,3.251733E1,2.3625486E1,1.8552372E1,2.9216133E1,3.3011985E0,3.836587E0,1.97889E1,3.639606E0,1.49127655E1,2.7151592E1,2.06454E0,1.5250484E0,1.7761501E0,1.1824481E0,2.6541388E0,1.2064515E1,7.7243853E0,2.3992727E0,1.2403334E0,1.0918873E1,3.9938934E0],"tree_param":{"num_deleted":"0","num_feature":"44","num_nodes":"25","size_leaf_vector":"1"}},{"base_weights":[-8.570199E-4,1.2366364E-1,-3.9795947E-1,2.6611733E-1,-3.2807934E-1,-1.2261509E0,-9.688784E-2,-4.6291852E-1,3.8354763E-1,-1.2534435E0,8.262641E-2,9.269053E-3,-8.40134E-2,-8.0619085E-1,2.3675138E-1,-7.3132806E-2,6.431383E-3,3.0603165E-2,-5.5969977E-3,-8.353006E-2,-5.370039E-3,3.6748998E-2,-1.9173227E-2,1.1263339E-2,-6.333663E-2,3.6307633E-2,-4.2045724E-2],"categories":[],"categories_nodes":[],"categories_segments":[],"categories_sizes":[],"default_left":[1,0,0,0,0,0,0,0,0,0,0,0,0,0,0,0,0,0,0,0,0,0,0,0,0,0,0],"id":50,"left_children":[1,3,5,7,9,11,13,15,17,19,21,-1,-1,23,25,-1,-1,-1,-1,-1,-1,-1,-1,-1,-1,-1,-1],"loss_changes":[3.648494E0,3.7024145E0,4.272998E0,3.881157E0,5.3922815E0,3.2665534E0,3.5047572E0,4.005393E0,4.349186E0,1.8952165E0,3.497605E0,0E0,0E0,2.5211606E0,6.0411663E0,0E0,0E0,0E0,0E0,0E0,0E0,0E0,0E0,0E0,0E0,0E0,0E0],"parents":[2147483647,0,0,1,1,2,2,3,3,4,4,5,5,6,6,7,7,8,8,9,9,10,10,13,13,14,14],"right_children":[2,4,6,8,10,12,14,16,18,20,22,-1,-1,24,26,-1,-1,-1,-1,-1,-1,-1,-1,-1,-1,-1,-1],"split_conditions":[6.710671E-2,3.68E0,-6.992E-1,4.17E2,1.712E3,-5.62E0,4.617117E-2,5.0179213E-2,4.69E-1,5.3658538E-2,5.2109182E-2,9.269053E-3,-8.40134E-2,3.762136E-2,7.1E-1,-7.3132806E-2,6.431383E-3,3.0603165E-2,-5.5969977E-3,-8.353006E-2,-5.370039E-3,3.6748998E-2,-1.9173227E-2,1.1263339E-2,-6.333663E-2,3.6307633E-2,-4.2045724E-2],"split_indices":[43,17,19,14,2,15,31,33,9,28,40,0,0,25,13,0,0,0,0,0,0,0,0,0,0,0,0],"split_type":[0,0,0,0,0,0,0,0,0,0,0,0,0,0,0,0,0,0,0,0,0,0,0,0,0,0,0],"sum_hessian":[7.179001E1,5.5176674E1,1.6613338E1,4.226092E1,1.291575E1,3.6100757E0,1.3003262E1,5.4547057E0,3.6806217E1,3.339522E0,9.576228E0,1.022772E0,2.5873039E0,3.7066736E0,9.296588E0,1.4803145E0,3.9743915E0,2.5028131E1,1.1778087E1,2.112766E0,1.226756E0,3.7503014E0,5.8259263E0,1.3018456E0,2.404828E0,6.61754E0,2.6790485E0],"tree_param":{"num_deleted":"0","num_feature":"44","num_nodes":"27","size_leaf_vector":"1"}},{"base_weights":[2.199356E-2,-2.2530192E-1,2.4272104E-1,-4.446337E-2,-1.0607054E0,4.6866322E-1,-2.4053185E-1,-9.6579903E-1,1.23824E-1,-1.6684641E0,1.0418493E-2,2.1928373E-1,4.9181934E-2,-9.0882915E-1,2.922505E-1,-7.677813E-2,-1.545122E-3,1.7734647E-2,-4.0233623E-2,-1.0473925E-1,-3.4105327E-2,2.0286977E-2,-3.273856E-2,-6.4952835E-2,2.7525345E-2,-3.908219E-2,3.474803E-2],"categories":[],"categories_nodes":[],"categories_segments":[],"categories_sizes":[],"default_left":[0,0,0,0,0,0,0,0,0,0,0,0,0,0,0,0,0,0,0,0,0,0,0,0,0,0,0],"id":51,"left_children":[1,3,5,7,9,11,13,15,17,19,-1,21,-1,23,25,-1,-1,-1,-1,-1,-1,-1,-1,-1,-1,-1,-1],"loss_changes":[4.225809E0,5.4756737E0,4.5738955E0,4.940965E0,5.3314095E0,3.403328E0,5.1356683E0,2.5712824E0,6.1116467E0,4.5507812E-1,0E0,3.5696077E0,0E0,4.308851E0,4.161746E0,0E0,0E0,0E0,0E0,0E0,0E0,0E0,0E0,0E0,0E0,0E0,0E0],"parents":[2147483647,0,0,1,1,2,2,3,3,4,4,5,5,6,6,7,7,8,8,9,9,11,11,13,13,14,14],"right_children":[2,4,6,8,10,12,14,16,18,20,-1,22,-1,24,26,-1,-1,-1,-1,-1,-1,-1,-1,-1,-1,-1,-1],"split_conditions":[5.2083332E-2,5E-2,4.942966E-2,4.68E2,3.7E1,4.3820225E-2,5.4406963E-2,5.7142857E-2,5.836576E-2,-6.59E-2,1.0418493E-2,6.84E0,4.9181934E-2,4.498E3,1.1583012E-2,-7.677813E-2,-1.545122E-3,1.7734647E-2,-4.0233623E-2,-1.0473925E-1,-3.4105327E-2,2.0286977E-2,-3.273856E-2,-6.4952835E-2,2.7525345E-2,-3.908219E-2,3.474803E-2],"split_indices":[31,31,26,14,4,26,26,33,37,19,0,17,0,14,24,0,0,0,0,0,0,0,0,0,0,0,0],"split_type":[0,0,0,0,0,0,0,0,0,0,0,0,0,0,0,0,0,0,0,0,0,0,0,0,0,0,0],"sum_hessian":[7.541533E1,3.5557358E1,3.9857967E1,3.009579E1,5.461567E0,2.7180206E1,1.2677762E1,3.9162443E0,2.6179546E1,3.4801967E0,1.9813704E0,1.9272982E1,7.9072247E0,5.3105893E0,7.3671722E0,2.0340924E0,1.8821518E0,2.146124E1,4.718306E0,1.645308E0,1.8348886E0,1.6326057E1,2.9469237E0,4.2768E0,1.0337892E0,1.7526025E0,5.6145697E0],"tree_param":{"num_deleted":"0","num_feature":"44","num_nodes":"27","size_leaf_vector":"1"}},{"base_weights":[1.1031448E-1,-4.4346005E-1,1.8455845E-1,2.2295776E-1,-9.981133E-1,7.200166E-1,6.39332E-2,3.8899533E-2,-2.36448E-2,1.2045522E-2,-7.38881E-2,-1.3497761E-2,9.0696615E-1,1.4701734E-1,-8.673666E-1,4.0929313E-3,4.951481E-2,-1.8143719E-2,1.5667446E-2,1.3026099E-2,-6.815055E-2],"categories":[],"categories_nodes":[],"categories_segments":[],"categories_sizes":[],"default_left":[0,0,1,0,0,0,0,0,0,0,0,0,0,0,0,0,0,0,0,0,0],"id":52,"left_children":[1,3,5,7,9,11,13,-1,-1,-1,-1,-1,15,17,19,-1,-1,-1,-1,-1,-1],"loss_changes":[3.0316186E0,3.4662628E0,4.0857687E0,2.2231574E0,3.3108473E0,2.403523E0,4.2521415E0,0E0,0E0,0E0,0E0,0E0,6.0927963E-1,4.3368783E0,2.8768976E0,0E0,0E0,0E0,0E0,0E0,0E0],"parents":[2147483647,0,0,1,1,2,2,3,3,4,4,5,5,6,6,12,12,13,13,14,14],"right_children":[2,4,6,8,10,12,14,-1,-1,-1,-1,-1,16,18,20,-1,-1,-1,-1,-1,-1],"split_conditions":[3.715847E-2,-2.4E-1,4.330709E-2,2E-2,1.3E1,4.4982698E-2,2.148E-1,3.8899533E-2,-2.36448E-2,1.2045522E-2,-7.38881E-2,-1.3497761E-2,-4.84E0,4.510309E-2,4.4198897E-2,4.0929313E-3,4.951481E-2,-1.8143719E-2,1.5667446E-2,1.3026099E-2,-6.815055E-2],"split_indices":[28,17,38,13,4,28,19,0,0,0,0,0,17,29,30,0,0,0,0,0,0],"split_type":[0,0,0,0,0,0,0,0,0,0,0,0,0,0,0,0,0,0,0,0,0],"sum_hessian":[7.074549E1,7.775583E0,6.296991E1,3.803585E0,3.9719977E0,1.0663841E1,5.230607E1,2.0502274E0,1.7533575E0,1.2474173E0,2.7245803E0,1.6233835E0,9.040458E0,4.8795048E1,3.5110202E0,1.0111097E0,8.029348E0,1.1711536E1,3.708351E1,1.2166922E0,2.294328E0],"tree_param":{"num_deleted":"0","num_feature":"44","num_nodes":"21","size_leaf_vector":"1"}},{"base_weights":[-2.3539329E-2,-2.6340887E-1,1.7551152E-1,3.8466775E-1,-4.749599E-1,2.3784359E-1,-4.6713173E-2,-2.8969485E-2,6.697527E-1,-1.3834475E0,-2.5393978E-1,-4.0162513E-1,3.6459503E-1,-4.2485693E-3,4.6170607E-2,-9.062146E-2,-4.3705506E-3,-5.293701E-2,-6.166288E-4,1.6467884E-2,-5.410224E-2,-9.323942E-3,2.4989115E-2],"categories":[],"categories_nodes":[],"categories_segments":[],"categories_sizes":[],"default_left":[0,0,0,0,0,0,0,0,0,0,0,0,0,0,0,0,0,0,0,0,0,0,0],"id":53,"left_children":[1,3,5,7,9,11,-1,-1,13,15,17,19,21,-1,-1,-1,-1,-1,-1,-1,-1,-1,-1],"loss_changes":[3.6628907E0,4.9471707E0,3.127269E0,2.8903723E0,4.999194E0,3.4339492E0,0E0,0E0,1.5124907E0,2.6155386E0,4.3925686E0,3.930226E0,2.6540298E0,0E0,0E0,0E0,0E0,0E0,0E0,0E0,0E0,0E0,0E0],"parents":[2147483647,0,0,1,1,2,2,3,3,4,4,5,5,8,8,9,9,10,10,11,11,12,12],"right_children":[2,4,6,8,10,12,-1,-1,14,16,18,20,22,-1,-1,-1,-1,-1,-1,-1,-1,-1,-1],"split_conditions":[5.1819183E-2,4.2801555E-2,2.63E2,1.4E1,4.3062203E-2,2.5E1,-4.6713173E-2,-2.8969485E-2,3.2707028E-2,4.6121594E-2,4.411765E-2,5.230769E-2,4.510309E-2,-4.2485693E-3,4.6170607E-2,-9.062146E-2,-4.3705506E-3,-5.293701E-2,-6.166288E-4,1.6467884E-2,-5.410224E-2,-9.323942E-3,2.4989115E-2],"split_indices":[31,33,4,4,39,5,0,0,42,26,42,39,29,0,0,0,0,0,0,0,0,0,0],"split_type":[0,0,0,0,0,0,0,0,0,0,0,0,0,0,0,0,0,0,0,0,0,0,0],"sum_hessian":[7.474753E1,3.3751453E1,4.0996075E1,8.104716E0,2.5646738E1,3.9559826E1,1.43625E0,1.6140897E0,6.4906263E0,3.989364E0,2.1657373E1,6.185416E0,3.337441E1,1.8000063E0,4.69062E0,2.6979249E0,1.291439E0,4.2196226E0,1.7437752E1,3.2306452E0,2.954771E0,6.499719E0,2.6874691E1],"tree_param":{"num_deleted":"0","num_feature":"44","num_nodes":"23","size_leaf_vector":"1"}},{"base_weights":[1.5845124E-2,6.196313E-1,-6.990917E-2,8.53666E-1,-1.1710383E-2,3.492782E-1,-2.2464222E-1,4.6789195E-2,9.169645E-3,5.893309E-1,-5.4826766E-1,-1.23042045E-2,-6.151288E-1,3.7065472E-2,-1.7940184E-2,2.7921373E-2,-5.3028047E-2,7.2201574E-3,-3.5283584E-2,-5.100459E-2,8.3116125E-3],"categories":[],"categories_nodes":[],"categories_segments":[],"categories_sizes":[],"default_left":[0,0,0,0,0,1,0,0,0,0,0,0,0,0,0,0,0,0,0,0,0],"id":54,"left_children":[1,3,5,7,-1,9,11,-1,-1,13,15,17,19,-1,-1,-1,-1,-1,-1,-1,-1],"loss_changes":[3.7996402E0,2.023114E0,4.2571406E0,2.3438215E-1,0E0,4.149777E0,3.944449E0,0E0,0E0,2.354621E0,3.0107713E0,3.5674698E0,5.4754915E0,0E0,0E0,0E0,0E0,0E0,0E0,0E0,0E0],"parents":[2147483647,0,0,1,1,2,2,3,3,5,5,6,6,9,9,10,10,11,11,12,12],"right_children":[2,4,6,8,-1,10,12,-1,-1,14,16,18,20,-1,-1,-1,-1,-1,-1,-1,-1],"split_conditions":[-1.27E0,7.392996E-2,-7.69E-1,3.258427E-2,-1.1710383E-2,7.084469E-2,6.0961314E-2,4.6789195E-2,9.169645E-3,6.08365E-2,-3.8E-2,6.748466E-2,4.911181E-2,3.7065472E-2,-1.7940184E-2,2.7921373E-2,-5.3028047E-2,7.2201574E-3,-3.5283584E-2,-5.100459E-2,8.3116125E-3],"split_indices":[13,43,11,34,0,43,32,0,0,35,8,31,27,0,0,0,0,0,0,0,0],"split_type":[0,0,0,0,0,0,0,0,0,0,0,0,0,0,0,0,0,0,0,0,0],"sum_hessian":[7.154773E1,8.123741E0,6.3423992E1,6.376236E0,1.7475048E0,1.6760586E1,4.6663406E1,5.327428E0,1.0488083E0,1.3494751E1,3.2658346E0,3.0894932E1,1.5768475E1,